nep4_zbl 4 Si O Ca H 
zbl 1 2
cutoff 4.5 4.5 57 57
n_max 10 8
basis_size 10 8
l_max 4 2 0
ANN 50 0
  7.9292030e-04
  2.2515974e-03
  4.1390553e-01
  1.3285880e-03
 -4.9535483e-01
  3.5005875e-03
  1.3935665e-02
 -3.4912860e-01
 -3.3414340e-01
 -5.5912673e-03
 -2.6184882e-03
  6.5577781e-04
  2.6099583e-02
 -3.3909837e-03
 -4.3887625e-04
  7.9719070e-03
  6.8497169e-03
 -2.9204364e-04
  3.6565834e-03
 -3.1276527e-03
 -3.7885224e-05
 -3.8013018e-03
  1.4494720e-03
  4.7567929e-03
  1.2589042e-03
  1.9148192e-03
  2.4094516e-04
 -4.3321904e-03
 -3.8839036e-05
 -2.0272534e-03
  1.5547808e-01
  5.8388256e-04
  3.0590484e-03
  2.9063538e-01
 -8.6014171e-04
 -1.0336346e-02
 -4.2835063e-06
 -3.0486970e-04
 -2.3938180e-03
  3.8333549e-04
 -1.1991973e-04
  2.8860439e-03
  9.5170615e-03
  7.0294556e-03
 -6.3124235e-04
  1.5532634e-03
 -2.5798259e-03
  1.1284226e-02
 -2.3876030e-04
 -7.5399544e-04
  1.1233084e-03
 -4.3579191e-03
  6.2125182e-04
  1.1264144e-03
 -4.2200764e-03
 -1.4077676e-05
  5.9811008e-04
  1.5743472e-01
 -1.3026221e-01
 -1.2491206e-03
  9.2823541e-01
  3.9400100e-05
 -1.5557592e-03
  3.8457531e-01
  4.6935755e-01
  2.3731774e-04
 -1.8383504e-01
  4.6720079e-04
 -1.6233053e-02
 -1.1163612e-03
  2.1960803e-03
 -7.4019313e-02
 -6.5070532e-02
  1.3919052e-04
  2.6757820e-03
  2.2221401e-03
  3.5046833e-04
  3.5089420e-03
  4.0959680e-04
  2.1814003e-03
  2.6886468e-03
 -3.5638269e-04
 -2.3990606e-03
  7.6510101e-03
  1.8366605e-01
 -1.2687826e-01
  5.6032270e-02
 -1.2044541e-03
 -1.3333054e-03
 -8.3406538e-02
 -5.6168377e-01
  2.2855548e-03
 -7.9724090e-03
  5.1310944e-04
  3.0414062e-03
 -5.4650242e-03
  2.6797166e-03
 -1.6578679e-03
 -5.9858613e-02
 -3.8742468e-01
 -1.7094889e-03
 -1.7966324e-03
  2.5413308e+00
 -2.9021716e-03
  2.1562721e-03
  2.1154645e-05
 -3.8085624e-03
 -1.4142200e-02
 -1.5233611e-04
  1.2633182e-03
  7.9825911e-04
 -5.0345348e-05
  9.7071097e-05
 -1.1200546e-03
  2.0454358e-01
 -6.3531691e-01
  1.5989255e+00
  3.3611608e-01
  1.5471068e-03
 -1.0059929e+00
 -1.1528220e+00
 -1.4244238e-03
  3.6449739e-01
  3.2772280e-03
  3.7138418e-03
  2.1484969e-03
  1.9712022e-03
 -3.1998495e-04
  4.7248635e-03
 -3.0012257e-04
  1.9649707e-03
  1.1274480e-03
  1.8024982e-03
 -1.7903580e-03
  1.0965460e-03
 -7.5392993e-03
  1.8859132e-04
  2.4932828e-03
  1.3312792e-03
  6.0258321e-03
  1.5749258e-03
 -8.7159984e-02
  5.7358652e-02
  5.7413080e-03
  1.0052163e-02
  1.6698231e-01
  7.3070332e-02
  5.7406741e-04
  2.6875278e-02
 -2.2263622e-02
  4.5187874e-03
  2.1217612e-03
 -9.9833286e-04
  1.4901176e-03
 -4.0428236e-02
  1.5396872e-01
 -9.4001374e-04
  1.9966073e-03
  3.5873225e-03
 -2.1458550e-03
 -6.6476651e-02
  6.4334553e-03
  4.4009989e-04
 -4.0613739e-03
 -2.4997727e-03
  5.1911175e-04
 -7.2711508e-04
 -2.4576338e-03
  7.3189533e-04
  2.8465170e-04
 -6.0403866e-01
 -2.0635507e+00
  2.0339456e+00
 -1.1903109e-02
 -1.1150304e-01
  1.2382567e+00
  1.0880990e+00
 -5.0758901e-03
  1.1129833e+00
 -7.4939042e-01
  2.2979884e-01
 -5.1106215e-01
  9.7398534e-02
 -6.3570672e-01
  3.8577494e-01
 -1.0746187e-03
  2.3065302e+00
  2.8518615e+00
 -1.6365403e-01
  3.2462275e-01
 -9.8577559e-01
 -1.2979814e-03
 -6.4432555e-01
 -1.2005497e-02
  1.9230932e-03
 -6.1653815e-02
  6.6773587e-01
  8.6884707e-02
 -1.8000039e+00
  8.3766710e-03
 -3.4119353e-01
  1.9360908e+00
  9.2789873e-02
 -1.1255837e-03
 -6.0171628e-01
  8.8636899e-01
 -3.9759797e-01
 -1.5807357e-02
 -7.1560619e-03
 -2.9361698e-01
  7.8285307e-01
  7.4140646e-02
  4.2963126e-03
 -8.0821559e-02
  2.0487397e+00
  2.9000887e-03
  8.5249189e-03
 -2.1613494e-03
  1.0196078e-03
 -2.4836294e-03
 -8.3986460e-04
  1.0849647e-03
 -1.4899159e-03
  5.3991401e-03
 -1.1929133e-03
  1.5500297e-03
 -4.4108788e-04
  2.0878992e-04
 -3.5022429e-04
 -1.0256862e-03
 -5.9131509e-01
 -2.8579095e-03
 -1.9707747e-03
 -1.5546235e-03
 -1.3767525e-03
 -6.7075295e-04
 -6.6734990e-04
  3.0456786e-03
 -7.7773613e-04
 -2.0290958e-03
 -8.6507592e-03
  9.1306552e-02
 -2.4321396e-04
 -5.2078884e-02
  3.4205322e-03
  4.3598008e-03
 -2.4346418e-03
 -5.2754837e-04
 -4.2684083e-03
 -2.4549344e-03
  4.4164891e-04
 -2.1713835e-03
  1.7448494e-03
 -2.5861032e-04
  9.5265795e-04
  2.0575867e-04
  8.6517096e-04
 -2.5170578e-03
  1.8578768e-01
  6.9247799e-05
 -3.5110639e-05
 -3.7385507e-03
 -1.8166791e-03
 -3.3618298e-03
 -1.3795112e-03
 -1.8923450e-03
  6.8935502e-04
  1.1767752e-04
  5.2723782e-03
 -1.0393445e-03
 -4.2788843e-03
 -2.6100982e-04
 -4.9646100e-04
 -7.5071270e-04
  1.4116729e-03
  4.8549840e-04
  1.4600146e-03
  4.0528271e-03
  2.3476731e-03
  1.8514666e-03
 -3.4268720e-03
 -7.1143778e-04
  6.0191834e-01
  3.6705232e-01
 -1.3569634e+00
 -1.3204445e-03
  1.6881286e+00
  2.1710715e-01
  4.5179497e-03
 -4.7117714e-03
  4.9643242e-01
  1.8387801e-03
  1.4578183e+00
 -1.6048905e+00
 -2.6215098e-03
 -1.4387746e-03
 -7.6240754e-01
 -5.2483617e-03
 -3.7963109e-04
  1.3114611e-03
 -1.7648928e-02
 -1.5398367e-01
 -4.3076503e-01
  5.4127395e-05
  2.6287416e-01
 -1.4067483e-02
  2.3394264e-03
 -1.0906997e-01
 -9.7786228e-04
  5.1646528e-04
 -1.1916451e+00
  1.8769399e-03
  3.5527060e-03
  2.1251290e+00
 -5.4613626e-01
 -2.3466074e-03
 -2.3500358e-01
 -5.8763251e-02
  4.5346146e-04
 -2.3840023e-02
  9.7812340e-04
  1.8731253e-03
 -1.1245864e-01
  1.4656983e-01
  5.3903618e-04
 -6.7602471e-02
 -2.9397737e-02
  7.0534176e-03
 -7.7954959e-03
 -1.0757741e-02
  1.8512572e-03
 -2.2030154e-03
  2.4729339e-02
 -1.9842884e-02
  2.3546172e-04
 -1.2570166e-03
 -2.2890679e-05
 -1.5148350e-02
  8.8472277e-02
  3.0671971e-04
 -5.4331964e-01
 -1.2478383e-03
  2.6995793e-02
 -5.0800782e-01
 -5.5249918e-01
 -5.9531210e-04
  1.0321206e-04
  3.8094635e-04
 -9.4172042e-03
 -1.4778525e-03
 -7.5781392e-03
  1.4856353e-04
  4.1755550e-03
  2.6287581e-03
  1.2250417e-01
  1.6450250e-03
  8.8952255e-04
 -2.5726156e-03
 -1.0093177e-03
 -1.3819385e-03
  1.5295936e-03
 -2.1766890e-03
  2.1299187e-04
  1.4557071e-03
  8.8258635e-04
  3.3436969e-03
  5.1127034e-03
  1.3957052e-03
  2.8829068e-02
  4.5163542e-02
  5.9384591e-04
 -6.5641588e-04
  8.3504781e-02
  1.3335088e-03
  1.2091545e-03
 -1.1832943e-03
  9.1081508e-04
 -7.3139224e-04
  6.3507877e-02
 -1.2794581e-03
  2.7869809e-03
 -4.0198192e-03
 -5.5780262e-04
 -2.6794980e-04
  3.8324462e-04
 -4.5603975e-03
 -1.3894612e-03
  8.6117885e-04
  4.1184761e-04
 -7.1599460e-03
  1.0360066e-03
 -9.9043059e-04
 -1.3636887e-01
  1.9280118e-01
 -4.0705267e-01
 -7.2110914e-02
  6.9037867e-01
  1.2377483e+00
 -1.3268965e-01
  5.9480798e-01
  1.0356634e+00
  2.1209423e-01
 -7.6951951e-01
  1.2365066e-03
 -2.7758169e-01
  7.7024125e-02
  9.1615461e-02
 -1.2536250e-01
 -2.1660660e-01
 -9.1107476e-01
 -2.0068407e-02
 -4.2051482e-01
  3.6981687e-02
  1.4399603e-01
  6.8684208e-01
  4.6305743e-01
 -3.0540758e-01
  3.9435923e-02
 -7.2765877e-03
  5.5710849e-04
  1.2614280e-01
  2.4790000e-03
 -5.2388841e-01
 -8.1747666e-02
 -2.5213644e-01
 -9.8836802e-02
 -7.3405780e-02
 -1.0116476e-03
 -3.3687100e-02
 -1.8828329e-01
 -3.0879769e-01
 -4.2186472e-01
 -4.2889506e-01
 -2.2618359e-01
 -5.1659811e-02
 -2.9359540e-02
 -2.3432432e-03
 -2.1460266e-01
 -1.5925217e-01
  6.7981654e-03
  2.8085738e-01
  7.1804732e-02
  9.1796970e-01
  3.5055172e-01
 -8.4141761e-01
  3.1838901e-03
  1.7229109e-03
  1.0364075e-03
  5.7988544e-03
 -1.2377559e+00
  6.1698061e-01
  1.5763792e+00
 -4.3889162e-01
  3.5478320e-02
 -4.8882786e-02
 -2.0329203e-01
 -3.4095937e-01
 -6.6452925e-03
  4.2412513e-01
 -2.6534662e-01
 -1.0865952e-01
 -7.3926023e-04
 -2.1177337e-02
 -1.0114174e+00
 -1.4248000e-02
 -1.1706699e-03
 -1.3405113e-02
 -3.9546585e-04
 -1.5072539e-02
 -1.0073175e-01
  7.8012234e-01
  1.2840253e-03
  7.0416145e-03
  3.3372847e-04
 -6.5982710e-03
 -1.5063868e-02
 -1.0435125e-01
  4.2652232e-03
  1.1148922e+00
 -6.8521150e-04
  2.3453857e-01
 -1.0648103e-02
 -1.2686931e-01
 -1.5865102e-04
  1.0801473e-01
 -2.8251901e-01
 -1.8982047e-01
  1.7697604e-02
 -1.3791481e-02
 -7.6763481e-03
  4.7167039e-01
  9.2015164e-03
  3.6688437e-04
 -3.8023066e-04
  9.3055358e-03
 -9.6446733e-05
 -1.8428691e-02
  4.3963689e-02
 -1.4980667e-03
  1.1685536e-01
 -2.2341765e-01
  2.4961901e-03
 -2.9256847e-03
  1.9548361e-03
  1.6994495e-03
 -7.2048552e-02
  5.0387625e-02
  9.7575394e-04
 -5.6975687e-01
 -3.5615469e-04
  4.6189991e-03
 -2.8897846e-01
 -3.6841989e-01
 -6.7956061e-03
  2.8579431e-02
  7.4119458e-04
  1.6761335e-02
 -2.3090893e-02
  2.0650078e-03
 -9.3873631e-04
  2.0446926e-03
  2.2522383e-03
 -5.7617091e-03
 -2.3533627e-04
 -5.0456692e-03
 -1.9126616e-03
  2.8625460e-04
 -5.3776097e-03
  1.1462062e-03
 -2.4659708e-03
 -3.8930515e-04
  1.3580685e-03
  3.5372493e-03
  9.6975546e-03
 -3.3944694e-04
 -1.1149484e-03
  2.2888354e-03
  3.7674055e-01
 -1.3348739e-02
  3.4112846e-03
  7.0693707e-03
  2.4470030e-03
  9.2797016e-04
  1.8150579e-02
 -3.2457302e-03
  1.6358143e-01
  4.5995540e-03
  5.8170009e-02
 -2.4335000e-03
  2.6202269e-03
  1.0715165e-02
  5.8997853e-04
 -1.6098240e-03
  2.1347022e-04
  7.7292356e-03
 -1.7136700e-03
 -8.7716002e-03
 -2.2667095e-03
  1.1946535e-03
 -9.9612586e-04
  2.6643602e-04
 -1.4468735e-01
 -1.2904429e-01
  5.7859057e-01
 -3.5819457e+00
 -1.0014987e-02
 -3.3094105e-01
 -2.2632608e-02
 -1.1992011e-01
 -3.8325775e-03
  2.3738306e-02
 -6.4566749e-01
  1.1898793e-01
  9.3204433e-01
 -2.1086389e-03
 -9.6111586e-03
  2.5998828e-01
 -1.6481032e-04
 -5.1648241e-01
 -6.4231972e-03
 -6.0255408e-01
 -1.8805719e-03
  7.1829215e-02
  1.7222763e-03
 -3.7433663e-01
 -5.4279161e-03
 -3.6899645e-03
 -2.8354971e-05
 -4.8036945e-01
 -4.0261444e-01
  6.4832397e-02
 -6.5022339e-03
  1.3496466e+00
 -6.9627607e-01
 -2.5400857e-03
  3.0784524e-04
  2.5458579e-04
 -4.8998708e-01
 -1.0704323e+00
 -2.5196508e-01
 -2.4765029e-03
 -4.3748775e-01
  8.8558923e-03
  9.3756676e-02
 -7.8944821e-04
  2.0262357e-03
 -7.1936443e-02
  4.1666850e-02
 -4.3200357e-03
  2.0954387e-02
  6.7487813e-04
  5.0925277e-03
  1.8871869e-03
  2.8176950e-03
 -2.7745866e-04
 -2.9884459e-04
  4.1590799e-03
  1.6476728e-01
 -1.0257427e-01
 -5.7608408e-01
  7.7943411e-03
 -2.3673306e-01
 -2.1215829e-03
 -4.2149287e-02
 -4.2218652e+00
  1.0075250e-02
 -1.0142292e+00
  1.1861438e-03
  2.0331779e-01
 -1.1236576e-02
 -7.0162989e-02
  4.0741315e-01
 -5.8421916e-01
  3.1867630e-03
  1.6190185e-01
 -1.2926507e-01
  5.9547802e-03
  9.8010695e-01
  2.1470892e-01
 -2.7769720e-02
 -4.2548417e-03
 -1.6461123e-02
  1.8307664e-03
  4.2703840e-01
 -3.1835383e-01
 -1.3801467e-01
  6.4442530e-02
 -4.7362015e-01
 -8.1028283e-02
  5.0934660e-01
 -3.5944134e-01
 -2.2851824e-04
 -1.1945064e-03
 -2.8009109e-02
 -7.6742419e-03
 -3.0414602e-01
 -5.7453328e-01
 -4.0230043e-03
  1.0638327e-01
 -6.8417424e-01
 -6.9679394e-03
  2.3665445e-02
  6.1860755e-02
 -3.7422523e-01
 -2.6776111e-03
  2.0151254e-02
  8.7289111e-04
  1.9000819e-03
 -3.3142212e-01
  3.6672008e-04
 -6.5729860e-04
 -1.5878213e-03
  3.2270022e-03
  1.0320755e-02
 -3.7024993e-01
 -1.2486405e-04
  1.4513881e+00
  6.1786799e-03
  5.4684724e-04
  6.9472641e-01
 -6.5111274e-01
 -6.1876932e-04
 -1.0081002e-02
  1.8577513e-04
 -2.4719373e-03
 -2.3434043e-03
 -1.6959340e-05
  1.8703123e-03
  2.0844163e-03
 -1.3699104e-03
  2.2184993e-04
  1.0485487e-03
  9.3202002e-04
  2.8522578e-03
  2.4584988e-03
  3.3039137e-04
 -3.1329377e-03
  6.1629509e-04
  2.2920847e-03
 -1.4421024e-03
  1.2221084e-03
 -1.1081208e-01
 -4.7092304e-01
  1.1329876e-05
 -3.8008482e-05
  3.7344134e-01
 -5.7717357e-03
 -5.1825889e-04
 -1.1758033e-02
  2.4698970e-03
  1.2010131e-03
 -4.8854285e-01
  1.5513417e-03
  1.3576669e-03
 -1.1819368e-03
 -1.0871096e-03
 -4.9183087e-04
 -6.9826574e-04
  2.4394623e-04
 -6.0864189e-03
  5.0182492e-03
  4.6244176e-04
  7.5036235e-04
  4.7217268e-06
 -7.8069577e-03
  8.5100852e-04
  4.4066823e-04
 -2.9790425e-04
 -1.7027180e-03
  6.8063004e-04
  2.3495822e+00
 -2.8048304e-01
  2.5649631e+00
  2.0475881e-03
 -3.1815112e-01
  2.7118604e+00
 -4.4171360e-01
  7.6297377e-03
 -1.0144529e+00
  1.2931246e-03
 -1.7451295e+00
  9.1920286e-01
  1.1835718e-01
  6.5942723e-01
  1.5134323e-01
  9.0793119e-04
  2.2947843e+00
  7.7536500e-01
 -1.2352299e-03
  6.4269784e-03
  1.1628729e+00
  3.2019773e-03
 -6.7994684e-01
  2.8050893e-03
  3.4183607e-01
  6.3094580e-01
  2.8062733e-02
  1.9892780e-01
 -7.1003222e-01
 -6.3793099e-01
 -2.1182202e-02
 -8.3740480e-02
  7.6391405e-01
 -5.3202250e-04
  3.5004787e-02
  1.4699160e-01
  2.1253061e-02
 -2.3657007e-02
  9.5333807e-02
 -6.6711372e-03
 -5.6198323e-01
 -4.0645275e-01
  2.2567181e-04
  9.1948263e-02
  3.8800691e-03
 -4.2222361e-03
  3.7876446e-02
 -1.1123355e-04
  3.6393942e-03
  5.5009057e-04
 -3.9169765e-03
 -4.8482665e-03
  4.0728059e-03
  5.0963153e-04
  1.8413299e-04
 -7.8796307e-03
  9.6782535e-01
  2.7751978e-03
 -1.5558021e-01
 -3.0031682e-03
 -4.3063163e-04
 -4.5468397e-02
 -1.4142828e-01
 -5.3133524e-04
  1.9237406e-03
 -1.4334403e-03
 -3.2511835e-03
 -2.5516190e-03
  1.3723416e-03
  3.3139970e-04
  4.4806856e-03
  2.2209331e-03
 -6.8796566e-04
  2.6157984e-04
 -1.3735124e-05
  2.1303452e-03
  2.1206164e-03
  1.6451979e-03
 -2.1447500e-03
  6.7149061e-01
  5.2705579e-03
 -1.4208263e-03
 -5.4551633e-03
  2.3081031e-02
  2.1844586e-02
  1.1655784e-03
 -8.2074309e-04
  2.9694393e-01
  2.1426689e-03
  1.4099140e-04
 -3.4624402e-04
 -2.1696147e-03
 -2.4776142e-02
 -8.8202831e-04
 -9.6044864e-04
 -1.6832100e-03
  3.3349344e-03
  5.0370707e-03
 -3.5561842e-03
  1.4857247e-02
  3.5755572e-04
 -4.1353558e-03
  2.4756945e-03
 -1.7184514e-03
 -2.4997513e-03
 -3.2249538e-03
  1.5002497e-03
  4.9741153e-04
  1.0102306e-03
 -1.0492310e-03
  8.6348312e-04
 -8.4031833e-04
  1.1350018e-03
 -1.4605025e-03
 -5.8005765e-02
 -7.3405178e-03
  6.5599254e-04
 -8.4359748e-03
 -1.8151639e-02
  1.6291816e-03
  6.2246784e-04
 -1.4869492e-03
  8.9670660e-04
 -4.5901625e-03
  9.3870010e-04
 -6.1916467e-04
  1.2484085e-04
  1.4601287e-04
 -2.1378389e-03
  4.6681373e-05
 -1.1425102e-03
 -3.7827890e-03
 -9.1381010e-04
 -8.0066128e-04
  1.0456290e-03
 -5.6360845e-05
  2.2231052e-03
  1.9226060e-04
  3.8180873e-04
  1.9443478e-02
  5.8827183e-04
 -1.4030474e-03
 -1.9625640e-03
  1.2825716e-02
 -9.9543866e-04
 -1.4417141e-03
  4.3831512e-04
 -5.5249111e-05
  9.9482788e-03
 -8.8969350e-04
  3.2529159e-04
  4.5332494e-03
  5.9993728e-03
 -4.3370723e-04
 -1.4807183e-03
  1.3201371e-03
  1.7399709e-03
  1.4066667e-03
  3.1475309e-02
  1.6207796e-03
  8.7042295e-05
  9.9235505e-04
  6.4023834e-04
 -1.9715126e-03
 -7.0153613e-04
  2.0873682e-03
  4.0084994e-03
 -1.1819816e-01
  9.5246047e-02
  4.5912545e-03
 -6.5325576e-01
 -1.0876908e-02
  1.6205657e-03
 -1.0979002e+00
 -6.8416297e-01
 -6.9968081e-03
 -6.3134008e-05
  8.1790695e-03
 -4.3730728e-05
  7.4253080e-04
  2.2178258e-04
 -9.3462002e-03
 -1.6736467e-03
  2.8237770e-03
  3.6049595e-03
 -5.4113414e-02
  1.1483104e-03
 -2.9130711e-04
 -3.5300828e-04
 -4.6858708e-03
 -6.3218814e-03
 -5.8551566e-03
 -3.4682564e-03
  1.1872699e-02
 -9.3816919e-04
 -2.4022248e-02
  7.8260666e-03
 -5.5127785e-02
  1.7151855e-03
 -3.8674638e-02
 -1.0013578e-01
  1.6459030e-03
 -9.5482520e-04
 -4.8595839e-04
 -1.5342273e-01
  7.2600081e-04
 -1.4914108e-03
 -6.9314439e-04
 -1.8053758e-03
  5.0928276e-02
 -3.8264261e-04
  7.3906954e-04
 -1.3486628e-03
 -4.9693561e-03
 -2.4556464e-03
  1.9249571e-03
  1.3143754e-04
 -6.3369673e-04
 -1.6475510e-02
 -3.8307230e-03
 -1.1643606e-03
 -1.6325423e-02
  1.5657211e-03
 -4.6845613e-04
  4.0215725e-01
  2.2566840e-01
 -5.1660848e-01
  7.6788513e-04
 -5.2746081e-01
 -1.6582433e+00
 -3.0740657e-01
 -6.9945743e-03
  9.5054746e-02
 -5.5294480e-02
  9.1561313e-05
 -1.4746067e-01
 -2.2358943e-03
 -2.0544608e-01
  1.6455783e-01
  3.3613751e-04
 -2.3862543e-02
 -2.6992301e-02
 -1.7656137e-01
 -1.3897014e-03
 -1.3955701e-03
 -1.9398766e-02
 -3.3545184e-01
 -4.5571597e-03
 -9.7780838e-04
 -2.4966830e-03
 -8.7516638e-04
 -4.0346184e-01
  5.3993952e-03
 -1.0963451e-02
  5.7342745e-02
 -4.5778725e-01
 -7.3677503e-02
  3.4071226e-03
  9.9969871e-02
 -5.1068485e-02
  8.5746692e-03
  1.1979350e-03
 -5.5885803e-02
  8.7231526e-04
 -1.0466350e-01
 -7.9315722e-01
  9.6187880e-03
 -9.8233542e-04
 -1.4350076e-03
 -7.3468844e-05
 -1.4796641e-03
 -1.2096147e-02
 -5.0717877e-04
  3.2035734e-03
 -4.6929345e-03
  2.9384140e-03
 -2.5404112e-03
  1.4172063e-03
 -1.4018646e-01
 -8.9692418e-03
 -1.2092786e+00
  1.4930089e+00
 -1.4219315e+00
 -7.4780524e-01
 -1.6051000e-01
  9.7547001e-01
 -1.8185235e-03
  1.3272294e-01
  1.1403388e-01
  5.8204418e-01
  1.3994213e+00
  1.1531236e+00
 -1.6034633e-03
  5.5315584e-01
 -4.7089303e-01
  1.2843173e-03
  7.3022437e-01
 -3.8583207e-01
  1.1422229e+00
  1.3379438e+00
  1.6317549e-01
  4.8495005e-03
  7.1443148e-02
  6.7797494e-03
 -1.4731183e-03
  4.7875333e-01
 -2.8163978e-01
 -2.7347490e-01
  1.8907522e+00
  2.7571663e-01
  1.0214143e+00
  1.1100919e+00
 -1.7982970e-01
  1.3525899e-01
 -7.5839370e-02
 -4.7764439e-02
  7.2847871e-04
  9.1047657e-01
 -4.4915597e-03
  2.3262303e-03
  1.6467918e+00
 -2.7139696e-01
 -3.5675406e-03
  5.0342213e-03
 -1.0131568e+00
 -5.9251403e-03
 -2.0163392e-03
  8.8124524e-04
  7.2781625e-04
  4.8050568e-01
 -8.6930144e-01
  1.4009797e-03
 -3.9316625e-03
 -1.4572612e-02
 -1.7985746e-02
  1.1171160e+00
 -9.6976447e-01
 -2.3802728e-03
 -1.2218659e+00
  9.2479473e-05
  2.5970832e-01
  1.3125584e-01
  3.2639079e+00
 -1.2673367e-03
 -6.8585610e-01
 -4.5032441e-03
  8.0918610e-01
 -3.1392879e+00
  2.9941166e-03
 -1.7067974e+00
  2.4875677e-01
 -3.1807271e-04
 -8.9119405e-01
 -4.3024349e-01
 -3.3997772e-03
  6.6921216e-01
  2.2975788e-01
  6.0650124e-04
 -1.0817445e-02
  3.8804871e-01
 -1.4281691e-03
 -1.4155923e-02
 -4.0903047e-04
 -7.6568770e-01
 -1.6337927e-01
 -7.9244927e-02
 -2.7939481e-01
  1.0177264e-01
 -5.3741282e-01
  3.4629137e-04
 -7.5273550e-01
 -1.8826245e-01
  2.9603977e-02
 -2.5540423e-02
  1.4874160e-03
  6.1443120e-02
  1.5927197e-01
  4.0345156e-01
  2.3288650e-03
  4.2248502e-02
  7.5272196e-03
  1.6697623e-03
 -4.4012680e-03
  1.2501896e-03
  2.0877492e-02
  3.5083124e-03
  1.0529844e-03
  7.2552211e-04
  1.0048386e-03
  3.9040481e-03
 -5.9747737e-04
 -1.3578360e-03
 -2.1835515e-01
 -2.5072244e-01
  5.3880489e-01
  8.4949974e-03
 -1.5067096e-03
  6.2509120e-01
  4.8429456e-01
  5.0830079e-04
  4.1349907e-04
  2.7553628e-03
  5.2746788e-02
  6.8078889e-04
  5.8928030e-03
  1.6030593e-02
 -1.1005942e-03
  5.5727368e-04
 -2.9754397e-04
  1.3870384e-03
  1.0170919e-03
  3.3035249e-04
 -1.5386586e-03
  2.0637114e-03
  4.3553389e-03
  5.9361164e-03
 -4.8453412e-03
 -7.0531988e-03
  1.7856343e-03
  2.1889904e-01
 -1.5769919e-02
 -1.6404762e-03
  9.7123400e-04
  5.5704117e-02
  1.0463948e-02
 -1.5301221e-03
 -1.5327326e-02
  2.3608115e-03
 -2.8012198e-04
 -3.3985075e-04
 -6.3028328e-02
  1.9538144e-03
 -8.6343102e-04
 -4.4581253e-02
  1.6034554e-03
 -6.9452897e-03
 -1.0275996e-02
 -3.1490731e-03
  3.3733798e-03
 -9.6045173e-04
 -4.4838632e-03
  8.7586767e-04
  3.4489762e-03
  7.5201897e-05
 -5.9456791e-04
 -2.9745648e-04
  1.2775005e-03
  2.6219336e-02
 -3.4823889e-01
 -4.2611487e-02
  5.4366231e-01
  1.4709370e-01
 -1.1236670e-04
  9.9187344e-01
  5.2779067e-01
  2.7716944e-03
  3.3767172e-03
  2.5504662e-02
 -3.7923324e-01
 -1.1904851e-02
  9.4380952e-02
  1.6188050e-03
  1.8565239e-01
 -1.9292162e-03
 -6.3117584e-03
  1.5498388e-02
 -3.9191119e-04
  2.1240391e-02
  1.3747584e-03
  8.4778173e-03
 -2.8090870e-01
  1.0697152e-01
  7.1382464e-04
 -2.9180130e-01
  2.5271649e-02
 -3.8390094e-03
  8.4323660e-02
  1.5316458e-03
 -2.3691447e-01
 -9.4727948e-02
  1.8428471e-02
 -2.5063989e-04
 -1.2034338e-02
  7.7782325e-03
  2.2247247e-02
 -2.4336521e-03
  3.7812293e-03
 -4.8035819e-02
 -5.8468245e-04
 -9.6710779e-02
  7.9607510e-04
  1.2802688e-02
  1.9527638e-02
  1.1809785e-02
  1.3777206e-03
 -2.4373217e-02
  2.0492291e-03
 -3.7187084e-03
  2.3660751e-03
  1.3395108e-03
 -4.8565315e-03
  1.3646719e-02
  6.6880451e-04
 -6.9236383e-04
  5.4142648e-01
 -2.2162772e-03
 -8.1502604e-01
 -1.7156552e-04
  1.5701181e-03
 -2.7179241e-01
 -4.3425888e-01
 -4.4316781e-04
 -2.9545057e+00
 -6.4266860e-03
  3.1021000e-03
 -5.7713618e-04
  8.6582493e-04
  1.5398621e-04
  3.7791564e-03
 -8.2867203e-04
  5.9904845e-04
 -1.0740601e-04
 -1.9319617e-03
  3.5069461e-04
 -2.1214362e-03
  4.6197502e-03
 -2.5320216e-04
 -9.9264202e-05
  1.4874112e-04
  1.3325822e-04
 -1.9546179e-03
 -3.6715690e-04
  1.1428474e-03
  7.1902121e-03
  1.5966258e-04
  4.3365597e-03
  5.9703703e-04
 -2.6832114e-03
  2.9600854e-03
 -2.9069600e-03
 -1.3790743e-03
  1.3209824e-03
 -2.9138175e-03
  1.1252587e-03
  7.0511905e-04
 -2.2362632e-04
 -4.3828654e-04
 -1.7633151e-04
 -1.0071530e-04
 -1.1900944e-03
  4.4629563e-04
  2.3064544e-04
 -7.4711582e-04
 -6.7078485e-03
  2.4367333e-03
 -3.2884735e-03
 -4.5586890e-01
 -1.3431213e-04
 -1.2627175e-03
 -2.2236789e-03
  9.4449610e-02
 -6.0540659e-04
 -4.3344277e-01
  2.3301051e-03
  5.4834159e-03
 -1.2979174e-01
 -1.7376131e-01
  7.3872543e-05
  4.8840083e-03
  7.6865515e-05
 -3.6681399e-03
 -2.8321231e-03
  2.7508249e-03
 -1.5952931e-03
 -2.1330586e-03
 -1.5250647e-03
  4.8492406e-04
 -2.2626547e-03
  3.2793209e-03
  2.3904759e-03
 -1.6432350e-03
 -4.5190100e-03
 -4.8746080e-03
 -3.6843744e-04
 -1.5082810e-03
  1.0971681e-03
 -3.0833733e-04
  2.3885549e-04
 -2.8591249e-03
  9.2156575e-04
  8.4561817e-03
  1.3135831e-01
 -4.9622469e-03
  2.4375494e-03
  9.2937134e-04
  3.0048972e-03
  5.3617184e-04
  1.3471984e-02
 -3.0487587e-03
  1.2920151e-03
  8.2859425e-03
  2.0004613e-03
 -4.9230301e-05
 -6.2099879e-04
 -1.5468029e-03
 -1.7614523e-04
  4.0387656e-03
 -3.5876417e-04
  6.5591518e-04
  1.2897594e-03
  1.6830321e-03
  2.5905357e-04
  1.2707404e-03
  2.0515232e-03
  6.3750315e-03
 -1.1559397e-03
 -1.6591032e-01
 -6.0688297e-05
 -4.4052300e-01
 -2.1827035e-04
 -7.5591513e-04
 -1.6125573e-01
 -6.0321170e-01
  3.3194683e-03
  4.2341616e-02
 -3.2525184e-03
 -1.7540103e-03
 -5.1774748e-04
  9.1319630e-04
  4.1884056e-04
  3.3728953e-03
  4.5493469e-03
  1.0780696e-03
  1.9781454e-03
  3.9138380e-03
 -5.2489626e-04
 -7.5012661e-04
 -5.4679381e-06
 -2.5857254e-03
 -1.5949763e-02
 -6.6324743e-04
  9.3311840e-04
 -1.4755641e-01
  3.3936708e-03
  3.4729741e-03
  7.7221561e-03
  1.6270104e-03
  4.0858239e-03
  6.5925256e-03
 -1.9160744e-03
  4.1327435e-03
  4.3963590e-03
  1.2984633e-03
 -1.4685810e-03
 -9.2996727e-04
  8.5531332e-04
 -3.4890854e-04
  2.6787547e-04
 -1.2927604e-03
  1.0278515e-04
 -1.4426628e-03
  1.2881049e-03
 -2.1855617e-03
  5.3294178e-04
  2.1252022e-03
 -2.1425050e-03
  1.0611288e-03
  2.2556636e-04
 -1.7162965e-04
 -4.5340168e-04
 -2.7520454e-03
 -8.1120908e-02
  2.7631781e-01
 -1.5709564e-04
 -4.2058548e-01
 -1.8614063e-03
 -5.6740995e-03
 -3.3984113e-01
 -6.3093603e-01
  1.9822628e-03
  4.4906497e-02
 -1.3121629e-01
 -2.3274425e-04
 -4.2923586e-04
 -3.7945199e-04
  1.6450305e-02
 -9.4982155e-04
  1.3715400e-03
  2.6186339e-03
 -2.0078020e-03
  8.4529491e-03
 -1.6925663e-03
 -6.0138614e-03
  1.6503933e-05
  5.8966498e-03
  5.7280227e-04
  1.1398494e-03
  5.5649354e-05
  3.0343686e-03
  7.2163488e-03
  1.0913681e-03
 -8.3910051e-04
  1.2905583e-04
  2.6141074e-01
  9.2868274e-03
 -7.1609486e-04
  1.0329101e-02
 -4.7368105e-03
  1.7391838e-03
  2.4161530e-03
 -2.6687926e-02
 -1.4345250e-03
  2.0470105e-02
  4.2507518e-02
 -7.0853010e-03
 -8.8608533e-04
  6.5248826e-04
 -1.2504988e-03
  3.7248037e-04
  1.1191521e-03
 -1.4829852e-03
  6.0348283e-03
 -2.8936944e-03
 -1.0985596e-03
 -6.2250101e-04
 -2.9579079e-04
 -1.7799769e-03
  3.5859232e-03
 -3.0779738e-03
  6.0262909e-04
  1.6214439e-01
 -2.3912138e-03
 -2.3203967e-03
  2.8150253e-02
  3.4730796e-02
 -3.8523960e-04
 -3.5852147e-03
  2.6873753e-03
 -2.6062909e-03
  2.1699481e-03
 -2.3254829e-03
 -3.2940069e-03
  1.2631032e-04
 -8.3104294e-04
  4.1876170e-03
  2.8837254e-04
  7.0952594e-02
  8.9112611e-04
  4.9495935e-03
  2.7595745e-05
 -7.6528806e-03
  5.4754567e-04
 -6.5936724e-04
 -7.2730222e-04
 -5.4314141e-03
 -5.5274565e-04
 -8.1145682e-04
  3.3625087e-04
 -1.8054782e-03
 -2.2153945e-01
  1.9616489e-03
  1.6317007e-03
 -2.4735398e-04
 -5.7944278e-03
  3.4268044e-03
 -4.7191780e-04
  4.3149965e-04
 -2.0003514e-03
 -3.1998882e-03
  1.3367303e-03
  5.4009759e-04
 -4.2551355e-03
 -1.8789028e-03
  5.1134471e-03
  1.7895937e-03
 -4.4068936e-05
  1.1483356e-03
  4.8862395e-05
 -2.0460703e-03
  1.3178864e-03
  8.7104633e-04
  2.5351399e-03
 -7.3762015e-03
 -5.1801586e-01
 -5.7970822e-01
 -5.0392765e-01
  6.4592671e-01
  4.0098876e-05
 -7.5513959e-01
  1.0130266e-01
  1.8000999e-01
 -2.4296907e-01
 -1.0667666e+00
  1.6101641e-03
  4.6858117e-01
  2.2687647e-01
  2.5269107e-03
  1.2636114e+00
 -1.4395522e-01
 -2.8575251e-01
 -4.3949503e-01
  7.6413259e-02
 -4.2253197e-03
  5.6011426e-01
  2.8405214e-02
  8.0507092e-02
 -2.1984968e-01
 -3.4474165e-03
 -2.2697546e-04
 -2.7965254e-03
  7.5707487e-03
  8.5332006e-01
  1.0382068e+00
  2.0008704e-02
 -5.7061201e-01
  4.7855228e-01
  5.7217044e-01
  4.1648292e-04
  4.0334701e-03
  3.5643873e-01
  2.1821325e-01
  6.4557537e-02
  1.0883947e-03
 -4.5870923e-02
  1.2264977e+00
 -2.3120362e-01
 -2.5430685e-03
 -8.2120396e-02
  4.9272012e-02
 -3.8835630e-03
  2.0726063e-04
  2.0525616e-03
 -1.5375739e-03
 -1.9871675e+00
  2.3929065e-03
  6.0461673e-05
 -7.3910109e-05
 -1.0107037e-03
  9.4641268e-02
 -5.4568064e-01
  5.8722422e-02
 -1.1256395e-01
 -5.8355361e-01
  1.8278961e+00
 -1.4665493e+00
 -1.1522670e+00
 -1.7689703e-01
  2.0166670e-01
  2.7187213e-01
  6.2551157e-04
  1.0792047e+00
 -2.3883137e-01
  8.0741907e-04
  3.9948392e-01
  5.1001579e-02
  8.4635526e-02
  3.6652312e-02
  7.7117938e-01
  2.9913355e-02
  2.2294426e+00
  7.5776037e-04
  1.2774553e-04
 -1.0753602e+00
  2.4072026e-01
  6.3485946e-03
  2.9200681e-02
  1.8233623e-01
 -6.4792097e-02
 -1.3006110e+00
  1.0753289e-03
  2.4700747e+00
  1.9353686e-02
 -7.0098072e-02
 -5.0167346e-05
  5.8913063e-02
 -2.2479180e-01
  7.9442434e-02
 -6.4667010e-01
 -1.8020351e-01
  9.1088772e-01
  1.2362090e-02
  5.5772770e-04
  2.1965269e-03
  4.0937027e-01
  5.3968006e-01
  7.2491530e-04
  2.5508194e-03
  9.9064695e-05
 -1.7943409e-03
 -4.0724142e-03
 -1.8567046e-03
  4.0154636e-04
 -2.0653603e-04
  5.8363308e-03
 -4.7360593e-04
 -8.0980432e-01
  5.1389792e-04
  1.6519037e+00
 -2.0044453e+00
 -1.8360720e+00
  1.0243849e-01
  1.1756859e+00
 -8.9482713e-01
 -2.2812414e-01
 -3.3998517e-03
 -2.2793566e-01
  1.2573650e-03
  5.5430257e-03
  1.2789469e-04
 -1.2970214e+00
  5.9059268e-01
 -2.3037232e-03
 -2.7037269e-02
 -9.7152686e-01
 -4.5974052e-01
 -3.9293412e-02
  1.9717365e-04
 -4.2829481e-03
 -6.8871695e-01
 -2.0110984e-01
 -8.9942454e-04
 -4.6646479e-04
 -2.5646103e-04
  6.1109807e-02
  1.2024219e+00
 -3.0816639e-02
  2.3584741e-01
 -1.0348213e+00
  9.1375256e-01
  2.7081559e-03
  2.2889715e-02
 -8.7387455e-01
 -1.1157367e-01
  5.7088369e-01
 -2.3114884e-01
  1.3940542e-03
  6.2608789e-03
 -1.5055883e-01
 -8.9842044e-03
  6.6068405e-01
  3.9111263e-01
 -2.2731738e-03
 -1.0431850e-04
  1.4104148e-03
  1.1449721e-04
  7.6433094e-03
 -7.8664739e-03
  6.9570029e-05
  1.0355145e-03
  1.2694951e-04
  1.8111337e-05
 -2.2716764e-05
 -2.0374133e-01
 -3.0727994e-03
  3.0097198e-01
  4.6295077e-03
 -3.9843041e-03
  8.1918202e-02
  4.6109015e-01
 -1.8908132e-03
 -1.5357716e-03
  1.0335747e-02
 -1.6411701e-03
 -1.2756902e-04
  4.8096641e-03
 -6.6579278e-03
 -1.8541681e-04
  7.9862081e-04
  9.3783584e-04
 -5.2420155e-04
 -1.3325230e-03
  2.9664834e-03
 -2.9840280e-04
 -2.6637936e-04
 -6.4116449e-04
 -1.2463268e-03
 -9.0058539e-03
 -1.8599795e-03
  4.0877072e-04
 -9.3701901e-03
 -4.4800220e-03
 -1.9399602e-03
 -6.5118213e-05
 -5.3098552e-02
  1.4028411e-03
 -2.4776580e-04
 -1.8329000e-03
 -1.2754525e-04
 -9.9919715e-05
  5.4855231e-04
  1.2585291e-03
  1.0054650e-03
 -3.6962293e-02
 -4.7194737e-04
 -4.2574578e-03
 -1.6943694e-03
  4.2460030e-03
 -1.6709061e-03
 -3.1512601e-03
 -4.8125497e-04
 -5.8929325e-04
 -9.3862123e-04
  3.5388228e-03
  8.8279834e-03
  1.0762395e-03
 -3.1391161e-03
  1.4808662e-03
  1.1395569e-03
 -1.9565037e-02
 -5.0733346e-03
  3.8530630e-01
  3.4062958e-01
  4.1943263e-06
  1.3275599e-01
  1.2932562e-02
 -1.7184229e-03
 -3.5611182e-02
 -1.0985203e-02
  9.0304686e-04
  1.8917241e-03
 -1.3868677e-03
  2.2878514e-03
 -2.1246244e-04
 -9.9864171e-04
 -2.1489248e-04
  2.3719384e-03
  6.8730162e-03
  6.5404089e-04
  1.8718563e-03
  2.3699321e-03
  1.5923651e-03
  1.2181344e-03
 -1.6111315e-03
  3.1357311e-05
 -1.5641302e-04
 -6.9577382e-06
  1.4180883e-03
 -3.0596997e-04
 -2.1332582e-03
 -7.0182987e-02
 -2.6110405e-04
  1.0097228e-03
 -6.2259925e-03
  9.6117496e-02
 -1.0980324e-04
 -1.9233264e-03
 -8.5069804e-04
 -2.8688763e-03
 -1.9830998e-02
  9.1196847e-04
  1.6399877e-03
  7.4845721e-04
 -1.2295183e-03
 -4.7100871e-03
  2.8152842e-04
 -1.1418986e-03
  1.2125267e-04
  8.8215731e-03
  1.8609159e-04
  1.1749855e-04
 -1.9855991e-03
  1.6864561e-04
  5.1540160e-04
 -4.2147781e-03
  2.7205833e-04
  3.4120490e-03
 -7.7912307e-01
 -3.5972206e-03
  4.0938007e-06
 -2.5700712e-01
 -6.6113532e-01
  4.3909225e-05
 -4.6803340e-04
 -2.4076961e-03
  2.7792405e-03
  1.2437807e-02
 -9.4790879e-04
  1.8950581e-03
  4.0891361e-03
 -5.6382418e-03
 -1.6876221e-04
 -2.0715026e-03
  4.0706541e-04
  1.5360063e-03
  2.0961093e-03
 -5.3337519e-03
  1.8944034e-01
  4.5809586e-04
 -4.5284950e-03
  5.5970573e-03
  8.9090707e-04
 -1.9269386e-01
 -5.1125716e-03
 -1.5533244e-03
  2.3137955e-03
  2.0967813e-01
  1.6916447e-04
  4.9328343e-03
  1.4317358e-02
 -5.5219082e-04
  3.0213641e-04
 -6.6647498e-04
 -3.5559102e-03
 -2.3672603e-02
  2.1270793e-03
  4.4238884e-03
 -8.0364617e-04
  3.3808877e-03
 -1.0207905e-04
 -1.3332338e-04
 -5.6389845e-03
  7.9765677e-04
  6.0399408e-03
 -1.7787439e-03
  2.2002596e-03
  6.2711362e-05
 -2.9063984e-04
 -1.3495778e-03
 -5.1263731e-02
 -1.1434527e-02
 -4.8120579e-01
 -4.0087590e-01
  2.8988194e+00
  2.7727541e-03
 -1.0112079e-02
  2.2460928e+00
 -3.5429765e-02
  7.9100765e-02
  1.7085703e-01
 -2.3602223e-01
  2.5349882e+00
 -1.8445043e-01
 -1.1555515e-03
 -5.1167548e-01
  1.4964862e+00
 -2.6433987e-03
  2.3138344e+00
  4.3056574e-01
  2.8895936e-04
 -3.8078675e-04
  1.9745277e-01
 -1.1615273e-02
 -5.6613600e-01
 -3.0248255e-01
  1.8458166e-03
  1.5219401e+00
  4.6439904e-01
 -1.0350121e-01
  2.5123996e-01
 -4.3802761e-04
 -1.6913563e-01
  1.8981585e-01
  1.0297356e-01
 -7.2573131e-04
  4.2631608e-03
  6.7053378e-02
  1.3398840e-01
  2.4891360e+00
  9.9085749e-04
  4.1475895e-01
  2.1903645e-01
 -4.4543534e-03
 -2.3157033e-04
  1.6233961e-01
 -1.0338659e+00
 -5.3372033e-02
  4.8412231e-01
 -8.5906308e-05
 -9.6107920e-04
 -1.1159340e+00
 -3.5268348e-02
  3.9202673e-03
 -3.1098846e-01
  4.0264660e-03
  1.8952945e-03
 -3.5669326e-04
 -8.7417878e-02
 -3.5441210e-04
 -4.4599360e-01
 -2.2978687e-03
 -2.9729195e-03
 -1.5366329e-02
 -1.2924296e-01
 -8.8364823e-04
 -1.4799217e-05
  8.0898270e-04
  4.4013619e-02
  5.2857085e-04
 -2.3407364e-04
  1.0059737e-01
 -2.4729588e-03
 -5.6834257e-04
  1.1597673e-01
 -1.0893281e-04
  1.0022097e-02
  2.4668068e-02
  1.2082891e-03
  1.4548241e-03
  2.0640211e-03
  2.7001159e-02
  1.2612987e-03
  1.4352908e-03
  2.5659855e-03
  5.8735363e-02
  1.2599382e+00
  2.2059786e-03
  3.9459621e-03
  6.7471582e-01
  1.0834369e-01
 -1.0760461e-03
  7.0905633e-02
  5.3853840e-02
  1.5342779e-02
 -1.5520535e-03
 -5.7532196e-04
  1.4497357e-03
  3.5049987e+00
 -3.8165063e-02
  4.1218977e-03
  2.9057523e-04
 -1.0924586e-03
 -1.7964547e-03
 -2.6805081e-05
  1.8119466e-03
 -3.9872224e-03
 -1.2989137e-01
 -4.4798136e-02
  7.6208031e-04
  1.1449483e-04
 -5.1222607e-03
 -1.1157093e-03
  3.5807720e-04
 -7.9529859e-02
  1.0384953e-03
  5.5652428e-01
  2.6157058e-03
 -1.0906878e-03
  3.5145360e-01
  3.5745791e-01
  2.0560070e-03
  2.7551583e-04
 -1.4807764e-02
 -1.6348796e-03
 -3.0142756e-04
  1.0062570e-03
 -2.2893464e-03
 -5.0010532e-04
  1.2580113e-03
 -1.4713542e-04
  9.7805099e-04
 -1.6611438e-03
  2.5416319e-03
  4.3831044e-01
 -6.0755340e-04
  3.0096355e-03
 -2.5945981e-03
  6.5591554e-03
 -7.9468312e-03
  1.7933133e-03
 -2.9831566e-03
 -2.4534462e-02
 -2.0307506e-04
 -3.7862808e-03
 -5.1172033e-02
  6.4577427e-05
  1.1594651e-04
 -2.5801330e-03
 -7.5160828e-04
 -4.9389666e-04
 -2.9156678e-03
  2.3490009e-04
  2.2476052e-03
 -5.9921029e-03
 -1.5727520e-03
 -1.7957659e-03
 -8.2330324e-04
 -4.2650341e-03
  2.7687105e-04
 -3.7083328e-03
 -6.0233292e-03
 -3.3345105e-04
 -4.6396544e-03
  2.7134221e-03
  1.2044267e-04
  7.3009625e-04
  4.1542850e-03
  4.8071332e-02
  6.5703306e-04
  5.2503038e-02
  2.5187263e-01
 -9.4400370e-01
  1.2937449e-03
  1.1037761e-02
  1.7143725e+00
 -9.5325254e-02
 -2.5364483e-04
  6.7278691e-02
  2.3844246e-02
  2.4732192e-01
 -4.0360466e-01
 -8.4590074e-04
  1.0880342e+00
 -1.9039022e+00
  8.4368710e-04
  2.8272447e-01
  4.3600681e-04
  1.6720949e-03
 -1.0447655e+00
 -1.7896886e-01
  8.6750713e-04
  2.5904328e-01
 -1.2060621e-01
  3.1998791e-03
  1.7504612e+00
 -2.0361036e-02
 -1.2123528e+00
 -5.7587969e-01
 -4.1528890e-01
 -1.0089598e-03
  2.0157065e+00
  1.5307300e-01
  5.6630331e-03
 -8.9707039e-02
 -2.8424270e-02
  2.4753271e-01
  1.6881360e-01
  5.0000875e-04
  7.8100706e-03
  5.2294356e-01
  3.0928317e-02
  1.8564879e-03
 -3.0628045e-03
 -3.4975010e-01
  1.3818466e-03
  8.7751338e-04
  7.9537765e-04
  1.1218227e-03
  7.5711327e-04
 -1.5743092e-03
  1.9975973e-03
 -7.0955377e-04
  1.8467213e-03
 -5.5297174e-02
  1.5160331e+00
  2.6937842e-01
 -4.2156807e-01
  4.8770010e-01
 -1.2536530e-03
  3.2583597e-01
 -8.3709478e-02
  9.7882390e-01
  8.6113065e-03
 -4.9862334e-01
  6.1829638e-02
  3.1737298e-02
 -1.3664119e-01
  1.7863985e-03
  1.8199784e-01
  4.0949646e-02
 -4.4051837e-03
  1.0228156e-01
  5.1055861e-01
  9.9321969e-02
  5.6751645e-03
 -5.6642940e-04
  1.8277499e-03
 -5.3504303e-02
 -2.0508872e-01
  7.9524424e-03
  1.1072664e-02
  4.6597987e-02
 -2.9939066e-03
 -2.7532825e-01
 -1.9840888e+00
 -1.9486529e-01
  6.8282927e-03
  8.8158995e-01
 -1.1639396e-04
  1.7170784e+00
  4.2236114e-01
  1.1818027e-02
  1.1848024e-03
 -1.2956460e-03
 -1.3042375e-03
  5.4518215e-02
 -1.7876472e-01
 -1.9211754e-04
  6.5141067e-02
  5.7078894e-02
 -1.5035636e-03
 -6.7830924e-04
  1.0323654e-02
  7.2510523e-04
 -1.1873499e-03
 -3.9372323e-03
  1.0945091e-03
  1.4975261e-03
  5.8739254e-04
  2.1528371e-04
 -1.6353679e-03
 -2.8060286e-03
  1.0003099e-04
  3.3300811e-01
 -1.0258442e-03
 -3.5634113e-03
  3.3324727e-01
  3.6808455e-01
 -3.2314050e-03
  8.2587369e-04
 -2.1759737e-02
 -1.6181139e-02
 -2.6208044e-03
 -3.9530598e-05
 -1.0941953e-02
  8.4495358e-04
  9.4432977e-04
 -1.9273437e-03
 -4.8346166e-03
 -2.2318203e-02
 -1.8802707e-03
 -6.1175423e-03
  7.3527609e-04
 -2.6209280e-03
 -1.1102915e-03
  3.2029452e-03
 -7.9970257e-03
  1.4979336e-03
  2.1592446e-03
 -3.0481203e-03
  2.4213134e-03
 -5.3078249e-05
 -7.8342110e-01
  9.8740608e-03
  1.5533319e-03
 -3.9623356e-03
  1.4427483e-04
 -2.8870171e-03
  1.6884868e-03
 -1.7679965e-03
  6.3404901e-04
 -4.1860770e-03
 -1.6295691e-03
  1.8704394e-03
  5.5858202e-04
  3.5665841e-03
 -4.9825353e-03
 -2.6165855e-03
 -2.9923889e-04
 -1.6747036e-03
 -3.7349085e-04
  7.6295077e-03
  1.0078849e-03
 -8.1737194e-04
  2.9849110e-02
  1.4486489e-01
 -1.2837698e+00
 -1.3856186e-02
  9.4365425e-02
  1.1160040e+00
 -1.5578024e+00
 -1.6875142e+00
  3.8107204e+00
  1.1161751e-01
  2.7049015e+00
  2.8079526e+00
 -7.2494709e-01
  1.5344447e+00
  5.1617086e-01
  1.2477058e+00
  1.0392157e+00
 -2.2943068e-01
 -1.5927447e-01
 -1.6812243e+00
 -3.6659747e-01
 -9.5379287e-03
  2.8568738e+00
 -8.6874777e-01
  4.0206206e-01
  7.3294663e-01
 -2.5773379e-01
 -9.3925513e-02
 -1.1401840e+00
  1.3832952e-01
 -1.6828029e+00
  2.4283924e+00
  3.4992400e-01
  1.4139760e-03
  2.8305593e-01
 -1.3206977e-01
  9.6673274e-04
  2.2013518e-01
 -1.3224214e+00
  7.0201898e-01
  1.5772337e+00
 -1.8795660e-01
  1.1790043e-02
 -4.7988665e-01
 -6.8199962e-01
  2.1030453e-03
  1.7970429e-01
 -1.7346789e+00
  6.8104261e-01
  3.9596995e-04
 -4.9275169e-01
  1.3308442e-04
  5.2822888e-01
  2.4847059e-01
 -7.7506131e-04
  3.2534817e-01
  1.8634625e-02
  4.9784235e-03
 -4.7160883e-04
  2.2122914e-02
 -5.4716750e-04
  2.6972823e+00
  2.2384429e-03
 -7.5623815e-05
 -1.8485580e-04
  8.3720302e-03
 -1.2720209e-03
  6.2586658e-02
  2.0888508e-03
 -1.3077366e-03
 -5.0886353e-03
  1.0487406e-02
  1.6034659e-02
  3.1790670e-03
  3.1283178e-04
 -1.5719316e+00
  8.4580039e-05
 -3.2872130e-04
 -1.5822053e-02
 -3.8763816e-03
 -6.5879570e-04
 -3.6570357e-06
 -3.1584727e-03
 -1.6087128e-03
 -1.3135092e-01
 -1.2323710e-04
 -7.6866098e-02
 -4.3612767e-02
 -1.0105482e-02
 -7.9390017e-04
 -7.4214526e-02
  1.3628094e-02
 -1.4720716e-03
 -1.3531667e-01
  2.0506512e-03
  1.4279836e-03
  1.7317768e-02
  1.4711509e-03
  2.5019082e-03
  8.2312170e-03
 -2.0946218e-03
  1.5343693e-03
  1.5336587e-04
  3.6824162e-03
  1.4755097e-03
 -2.2757391e-03
  6.9491303e-04
 -7.0160488e-04
  5.8760477e-04
  2.9393113e-03
 -1.5578362e-03
 -6.5163774e-03
 -4.8141196e-04
 -1.4480039e-01
  1.9896147e-01
  3.6877534e-01
 -9.7793005e-02
  1.0281109e+00
  1.5346359e-01
 -6.7182608e-02
  1.8286219e+00
 -3.9807815e-02
  3.9893618e-01
 -8.9724116e-02
 -2.7826136e-01
  1.0996122e+00
  2.3500243e-01
  4.0954147e-02
 -2.9975796e-01
 -6.8036720e-02
 -1.7509708e-02
 -2.9251409e-01
  7.8436248e-03
 -1.2266625e-01
  2.4977989e-01
 -1.4557099e-01
  1.0137047e-01
  1.2037158e-01
 -5.0677755e-03
  4.8334249e-03
 -6.3903123e-01
  7.2897291e-01
  5.2874744e-01
  1.1052312e+00
  3.8959601e-04
 -2.9766608e-02
 -3.5131222e-01
 -8.1729126e-01
 -9.5529668e-03
 -8.4850591e-01
  3.8852423e-01
 -5.6676626e-01
 -5.4958593e-02
 -2.6083409e-04
 -8.2448512e-02
  9.4213200e-01
 -1.3122381e-02
  1.5149674e-03
  1.4741697e-04
  1.6706415e-01
  2.3753157e-02
  1.8786111e-04
 -1.0115560e-03
  3.3864272e-01
  2.4145928e-03
  1.2042211e-02
  3.6158443e-03
  3.2313485e-04
 -3.8579293e-03
  8.5217942e-04
 -2.3025225e-03
  3.2807243e-01
 -8.6025540e-03
 -7.8625536e-01
  2.4729184e-04
 -3.0879694e-04
 -2.7736375e-01
 -8.4241070e-02
 -3.9035680e-03
  1.9036872e-02
 -1.4872127e-03
  2.3193493e-02
 -4.5538510e-04
  1.3349066e-03
 -2.5949598e-04
  6.6079822e-04
 -2.5922865e-05
  2.5532601e-02
 -1.3362089e-03
  5.5362894e-03
  5.2754238e-04
  3.3308682e-04
  2.1554201e-03
  2.4834464e-03
 -6.7731930e-04
 -2.6303448e-07
  4.2107725e-03
  1.3946059e+00
  3.2028223e-03
  1.3519548e-02
 -2.9319583e-03
  1.1953088e-03
  1.4081171e-01
 -3.2441095e-03
 -2.5739652e-04
  5.9583103e-03
  3.3817089e-03
  3.5340290e-03
  1.0112994e-02
 -2.9292323e-03
 -1.4339600e-03
  1.3071151e-01
  7.4483469e-02
 -6.1211576e-05
 -1.2939904e+00
  3.6257622e-04
  3.2487649e-05
 -5.1791477e-04
  2.1725769e-04
 -1.3302665e-04
 -1.6773370e-03
 -2.0209998e-03
  1.4054383e-03
  2.9298961e-03
  1.8541664e+00
  2.9857398e-04
  2.5907971e-03
 -2.2965672e-03
 -4.8431787e-03
  3.6182892e-01
 -1.3267463e-03
 -3.6273550e-03
  1.3993717e+00
  2.1944444e-01
  4.2582682e-04
 -3.4755666e-02
 -1.8017098e-03
  2.4177576e-03
 -4.8548570e-03
  5.7563386e-03
 -1.7530463e-03
  5.5710869e-05
 -1.9820835e-03
  2.2273727e-05
 -5.2269174e-06
 -1.0382589e-03
  6.6297047e-02
  2.0827225e-03
 -3.4579894e-04
  1.0540250e-02
  2.1487207e-03
 -1.4924359e-03
  4.2985377e-04
  3.4507143e-03
 -9.8857493e-04
  6.9451793e-03
 -7.5095752e-04
 -2.1308779e-03
 -1.9540252e-02
  1.2176826e-02
  1.1182079e-03
 -6.9174456e-04
  2.7998502e-03
 -9.3839708e-04
  3.6396820e-04
  1.0678818e-03
 -1.1573663e-03
 -9.9089532e-04
 -4.5659151e-03
  1.6668829e-03
 -2.8533346e-03
  1.4379891e-03
  7.8007719e-04
  6.6345213e-03
 -1.3561069e-03
 -2.3481895e-03
  6.4970554e-05
  2.9680554e-03
 -8.9131307e-04
 -7.8005990e-04
  2.8600642e-03
  6.3957140e-04
  5.3629763e-03
 -2.6122702e-04
 -3.7373137e-04
  9.2790136e-04
 -1.0775962e-03
  1.8874721e-03
 -4.1615311e-03
  9.2286727e-04
  2.1563896e-03
 -5.4278098e-05
 -4.6318350e-03
  3.7049630e-03
  6.7804463e-04
 -1.2047864e-03
  7.5856317e-04
  2.7655193e-03
 -3.7777841e-03
  1.4896296e-04
 -2.8434055e-04
 -6.6974536e-07
  7.3559452e-03
 -1.5350792e-03
  9.0633560e-04
 -2.2587102e-04
  9.3141245e-04
 -4.3469321e-04
  2.5962812e-03
 -3.9041277e-03
  1.2522781e-03
 -2.3108951e-03
  5.0601080e-05
 -2.7085558e-04
  5.5678142e-03
  2.8651243e-03
  7.7042789e-03
  2.3950818e-04
  9.4504707e-04
  5.8208941e-04
  3.7065070e-04
  1.6170278e-03
 -2.2482928e-03
  7.2729995e-04
 -9.3221381e-05
  5.4460304e-04
  3.0616412e-03
 -1.7918164e-03
  2.4409206e-03
 -1.5294912e-03
  4.6175212e-04
  1.3299735e-03
  1.6232686e-02
  9.9821563e-04
 -2.3468649e-03
 -6.7705284e-03
 -2.6278463e-03
  2.3778239e-03
  1.1335734e-02
  3.4424294e-02
 -1.1190258e+00
 -2.8336881e-02
 -1.3324792e-03
  3.7458184e-01
  1.8146637e-01
 -4.2835960e-01
 -7.6694094e-04
 -4.5215717e-01
  2.5759768e-03
 -3.2796758e-01
  4.4340998e-04
 -3.1346703e-04
  1.6011144e-03
  5.8150220e-01
 -3.4650873e-02
 -2.4241614e-03
  3.7220726e-03
  7.7278604e-04
 -5.4839597e-04
 -7.2950817e-04
  2.2919130e-04
 -4.2516077e-01
 -3.8879547e-02
 -6.3848961e-03
  6.5250047e-03
  7.6942131e-02
 -8.0806571e-01
  5.6274110e-01
 -4.7442389e-01
 -1.0329418e+00
  2.5655752e-01
  3.2993071e-02
 -4.0539722e-03
  1.1700755e-03
  5.2513331e-01
 -9.5176631e-01
 -1.1974953e-02
 -9.7753555e-01
 -1.5193721e-03
  1.7003659e-02
  6.6365570e-01
 -1.0736398e-03
 -6.3998741e-01
  1.3893320e-01
  1.7608030e-03
 -4.3254442e-04
 -1.2559209e-02
 -5.9014940e-01
  6.9572713e-04
  9.5935835e-04
 -1.0610064e-04
 -2.9413260e-03
  3.3629601e-04
  2.8770319e-03
  3.0538177e-01
  1.0292226e+00
  2.2388241e-01
  3.7589371e+00
 -1.4707360e+00
  2.1756144e-01
  2.9246914e-01
 -1.9434711e-02
  2.2351234e-03
  6.8764895e-01
  4.4374149e-03
 -9.5973395e-02
 -1.2193278e+00
 -2.8555659e-03
  1.2413442e-02
 -5.8525127e-01
 -5.1361537e-03
  1.2411776e-02
 -8.7509965e-05
 -1.5440204e-03
 -2.0511027e-01
 -6.0361850e-01
  2.1975099e-03
 -5.3061661e-04
 -1.8365635e-02
  4.5450169e-04
 -3.1767914e-01
  1.0445772e-03
  1.5763541e+00
  2.0437751e+00
  5.5817427e-04
 -3.0989861e-03
 -2.1050208e+00
 -4.3588987e-01
 -2.2625562e-03
 -1.1550300e-01
 -1.5174855e-03
 -1.3033246e-03
 -1.5029225e-01
  1.6890554e-03
 -1.8806180e-03
  1.7255715e-01
  2.9178390e-03
  2.6674736e-03
  8.2279587e-01
 -5.6664163e-01
  7.0198998e-03
 -3.5237056e-01
 -7.1794708e-04
  1.7757133e-03
  1.6635192e-04
  3.8291156e-02
 -4.3238490e-03
 -1.8876882e-02
  6.3667801e-04
 -7.6414435e-04
 -1.7214464e-02
  1.8833372e-01
 -2.2109116e-03
 -8.6374700e-02
  1.9795361e-03
  1.5972932e-03
 -6.5582478e-01
 -3.6591312e-01
  2.1101020e-03
  1.2889443e-01
  2.9614725e-04
  4.6562208e-03
 -8.6493185e-03
 -2.9984755e-03
  1.1048730e-02
  1.1409834e-04
  2.6531264e-03
  1.3890512e-02
 -1.2826438e-03
  1.1991730e-03
  1.0651778e-01
  7.0687296e-04
 -6.9397152e-04
  5.9759087e-04
  2.8272363e-04
 -5.4208554e-02
 -2.3693608e-03
  6.3064661e-05
  3.7928481e-02
  1.7788945e-02
 -3.1765853e-04
  1.3671677e-03
  3.2949066e-01
 -1.0191648e-04
 -5.2847696e-04
  6.1183483e-03
  2.7931493e-03
  3.2828754e-04
 -3.8068820e-04
 -3.6568015e-03
  1.8130874e-03
  1.1761549e-01
  1.8987686e-03
  3.2174799e-03
 -9.4176934e-04
  3.7202783e-02
  1.0906931e-03
  2.5860716e-03
 -5.5919262e-04
  1.7842147e-03
  2.4220573e-03
  3.5039000e-05
 -5.4611574e-04
 -1.4405641e-03
 -9.2157908e-03
 -5.9378752e-04
  7.0452673e-04
 -6.7235075e-04
 -1.4240759e-03
  1.6859251e-01
 -4.5017847e-03
 -1.0557484e-04
  1.1363366e-01
  4.3654371e-02
  2.2654307e-04
 -3.5719567e-03
 -1.5677653e-03
 -1.9623158e-03
 -5.6057768e-03
 -2.1882731e-04
 -4.1551695e-05
  1.4106708e-03
 -4.5561604e-04
 -7.2178827e-03
 -6.1943801e-04
 -2.7136516e-03
  1.1779575e-03
 -2.1054174e-03
 -3.0083297e-04
  2.1800711e-03
 -1.8462428e-03
  7.4697193e-04
 -2.0791222e-03
 -1.9244777e-04
 -1.9771366e-03
 -4.1999766e-03
 -2.3119322e-03
 -1.2743330e-03
 -1.1847481e+00
 -2.4168682e-03
  4.2316120e-04
 -8.6294713e-05
 -6.9399964e-04
 -1.5660558e-03
 -2.8734616e-04
  5.6082547e-05
  2.1745302e-03
 -4.6444139e-03
 -4.4350433e-03
  3.8256202e-04
  8.0495270e-04
 -2.2288025e-03
 -1.9234556e-03
  2.2981884e-03
  1.7965144e-04
  1.0424508e-03
 -1.1922229e-03
 -1.0180150e-03
  2.1294246e-03
 -5.8899808e-04
  4.8493240e-03
 -1.3339141e-01
 -8.4114832e-01
  1.5957800e+00
  5.7472610e-01
 -8.2495195e-01
  3.5141185e-01
 -1.5233616e-02
  1.8508123e+00
 -7.4933702e-01
 -1.4161174e-01
 -1.0213951e-02
 -3.9162621e-01
 -2.0003862e+00
 -2.6794740e-03
 -4.5740122e-01
 -9.5949501e-01
 -7.7196196e-02
  1.3856437e+00
  4.9665970e-01
  6.6199969e-04
 -5.5058566e-03
 -2.9199874e-02
  2.6817274e-01
 -1.1269211e-02
 -1.1428911e-01
 -3.4746078e-01
 -6.0760733e-03
  3.6343867e-01
 -2.7772298e-02
  2.0954385e-01
  2.2813058e-01
  4.5735949e-01
 -8.5981691e-04
 -1.6913775e-01
 -1.5778030e-01
  1.0724510e-03
 -2.6965128e-02
  5.1184827e-01
  4.9574603e-03
  6.1411269e-02
  1.0829684e-03
 -6.2088016e-04
  5.6711948e-01
  1.5527227e-02
 -2.6118793e-03
  2.3091495e-01
 -5.1456431e-05
 -1.4807965e-01
  7.3332302e-02
  4.4513922e-02
  1.9163745e-03
 -1.2034190e-01
 -3.2953373e-01
 -1.0632189e-03
 -9.0790279e-03
  1.4329145e-03
 -8.6873686e-01
  2.3991147e-01
 -1.9772564e+00
 -8.3732659e-01
 -3.1433833e+00
  6.6879816e-02
 -6.4365447e-01
 -2.3321943e+00
  6.0423750e-01
 -4.7664455e-01
 -3.7278652e-02
  3.8578057e-01
 -3.0254933e-01
 -2.0093956e+00
 -1.1936105e+00
 -2.2654402e+00
  1.8248256e-01
 -6.0035670e-01
  5.5455440e-01
 -2.4751115e+00
  7.2893959e-01
 -1.0645752e-01
 -1.5257958e+00
 -5.5908490e-02
 -1.8046072e+00
 -7.8346469e-02
  1.9457316e+00
  5.9398019e-01
  1.5735145e+00
  2.5403750e-01
  8.9291912e-01
  2.0882437e-01
 -2.7864516e-01
 -1.4514835e-02
 -3.1354952e-01
  1.3716404e+00
  7.5731599e-01
  3.8293657e-01
  1.2151121e+00
 -2.1317562e-01
 -1.8604127e-01
  3.7607402e-02
 -8.8891053e-01
  1.0390579e+00
 -3.4281042e+00
  1.2715966e+00
  4.2375818e-01
 -1.0036373e+00
  4.4195540e-02
 -8.7815338e-01
 -2.8494132e+00
  9.7151995e-01
 -3.2959430e+00
  1.1986309e+00
  8.8514155e-01
  9.4962639e-01
 -2.0200458e+00
  2.7969670e+00
 -1.3232156e+00
 -1.5008764e+00
 -9.9361706e-01
 -3.6186049e+00
  2.9718181e-01
  1.0268995e+00
 -2.2405155e+00
 -8.7522233e-01
 -1.0535868e+00
 -2.0159352e+00
 -2.6403153e+00
  1.0906454e+00
  2.1896918e+00
  4.2410264e+00
 -2.0589033e-01
 -8.2177550e-02
 -1.6680243e+00
 -9.6739870e-01
  9.4527149e-01
  1.1532204e+00
 -1.2910737e+00
 -1.1818398e+00
  5.5494213e-01
  7.2624110e-02
 -9.1723186e-01
 -1.4400264e+00
 -1.6071008e+00
  2.5568194e+00
 -5.5727440e-01
  1.1915197e+00
  3.9117646e+00
  3.2948329e+00
  8.4502703e-01
  3.5857270e+00
 -1.6536245e+00
  4.0011287e+00
 -2.0941257e+00
  1.2756329e+00
  3.5587757e+00
 -3.3960378e+00
  1.7890501e-01
 -4.0334139e+00
 -1.0880443e-03
  3.1878610e-04
  2.2031882e-01
  2.2990135e-02
  3.3205545e-01
 -1.8626899e-02
  1.6376245e-01
 -8.1360358e-01
  1.3346173e-02
 -6.8695997e-03
 -8.5523558e-01
  3.5018562e-03
 -2.7255055e-03
  4.9989549e-03
  1.7194294e-03
  2.6299127e-03
  1.0641352e-03
 -3.7953051e-04
 -2.4993122e-03
  4.4530858e-03
  5.9860698e-03
 -8.6728099e-04
 -3.7481266e-03
  6.0896976e-03
 -4.7866144e-04
  7.3487614e-03
  1.3083592e-03
 -1.3455575e-03
  3.3547650e-03
  1.6494348e-03
 -1.3827531e-03
 -8.5995045e-05
  6.0009426e-03
  1.9904351e-04
 -1.2539441e-04
 -2.6757346e-04
 -1.4500132e-04
  7.1963220e-04
 -2.8153663e-03
 -1.7801023e-03
  2.1339089e-03
  8.3004491e-04
  5.7609269e-04
 -5.0268043e-04
  3.1148873e-03
 -4.8128815e-04
 -1.4150623e-03
 -5.5249693e-04
 -4.3909913e-03
 -1.7457292e-03
  1.9025510e-03
  2.3402230e-04
  1.5422726e-03
  6.4504246e-04
  1.0093350e-03
  2.7678287e-04
  7.5994022e-02
 -2.4576014e-04
  5.7793204e-02
  3.5078579e-01
  2.8965738e-01
 -5.9669375e-01
  2.6564246e-01
  1.3462228e-01
  4.4583377e-01
 -3.3875445e-01
 -5.2094942e-01
  1.1951221e-02
 -4.2549931e-04
 -5.0700095e-05
  1.4247612e-02
 -7.0241191e-03
 -1.7523546e-02
 -2.9163517e-04
 -3.6558662e-02
  5.2225506e-03
 -4.5657778e-04
 -2.4699231e-03
 -1.2883717e-01
  2.1719722e-01
  9.3779802e-02
 -3.4072844e-03
  9.3385745e-03
 -9.8739251e-02
  1.3519120e-03
  7.6786127e-05
  2.1495018e-03
  4.2876708e-03
  1.0488796e-02
 -1.5063741e-04
 -2.8594483e-03
 -2.9462285e-04
 -4.1541293e-02
  6.0339412e-04
  4.3877982e-02
  3.9722229e-04
 -1.5233550e-02
  3.5307422e-02
 -7.8429449e-03
  1.5352573e-04
  1.6247454e-03
 -1.3327285e-03
  5.5707649e-05
 -9.2657568e-04
 -9.4225479e-04
 -9.2187533e-05
 -7.8104285e-04
 -2.9639838e+00
  1.4147206e-03
 -3.5787036e-04
 -1.2379007e-03
 -7.6560490e-04
 -1.3840854e-02
  5.2456327e-02
 -5.4213834e-01
 -1.0701443e-01
 -1.1624569e+00
  3.8113359e-01
 -6.8383060e-02
 -6.9844606e-03
 -3.7653863e-01
  1.2354200e-02
  1.7725840e+00
 -3.4745850e-04
  5.7827600e-04
  2.9012139e-03
 -1.0583852e-03
  2.6962071e-04
 -1.2563186e-03
 -1.9896183e-04
  4.0665823e-03
  2.0304993e-04
  1.6965430e-03
 -1.1729909e-03
 -7.6585268e-03
 -4.4464506e-03
  4.1962862e-03
 -1.3111086e-04
  1.9321017e-03
 -1.5830471e-03
 -9.6695678e-04
 -2.1508863e-04
 -1.9390020e-06
 -1.3237214e-05
 -1.9921478e-02
  5.3993793e-04
 -1.5792795e-03
 -1.0639685e-03
  7.5894832e-03
  2.6775176e-02
 -1.8396541e-02
 -7.0037105e-04
  7.3475501e-05
 -1.6652311e-04
  9.0348779e-04
  1.1339933e-03
 -5.3503556e-04
  3.4115775e-04
  8.6793369e-03
  8.4736524e-03
  1.5138781e-03
 -2.8978859e-04
  2.2347379e-03
  1.2297091e-03
  9.2152704e-04
  6.2172301e-04
  6.3925883e-04
  3.8622287e-03
 -2.3736620e+00
 -2.1052890e+00
 -4.9556136e-01
  2.2519469e+00
  2.6501879e-01
  3.0208237e+00
 -1.4919219e+00
 -1.2641473e+00
 -6.8410563e-01
  2.1500506e+00
  1.8196623e-01
 -3.4197980e-01
  6.3743472e-02
 -8.2314134e-01
  1.1787631e-01
 -1.9283535e+00
 -4.9935251e-01
 -3.3569059e+00
 -3.5531777e-01
 -2.9044488e-01
 -4.6757180e-03
  8.9110583e-03
  4.3663767e-01
  4.2406526e-01
 -2.8502057e+00
  4.5572873e-03
 -1.1992247e+00
  1.0840758e-03
 -1.1400696e+00
 -9.5683008e-01
 -2.4052064e+00
 -1.7291911e+00
 -3.6805341e+00
 -6.0845934e-02
  2.5964770e-02
 -4.3224173e+00
 -1.3008342e+00
 -2.5000563e-01
  9.7139552e-02
 -7.1680236e-01
 -1.3642142e+00
 -1.9218061e+00
  5.5362809e-01
 -1.6466146e-02
 -2.2579408e+00
 -1.1660744e-01
 -1.6650963e-01
 -2.4011787e-03
  1.4888513e-01
 -2.6288488e+00
  2.7373221e+00
 -3.8647444e-03
  1.8869557e-03
 -3.1979349e-03
  2.5202483e-02
 -2.0337362e+00
  5.1368481e-01
  7.6460814e-01
 -1.4246891e+00
 -1.1035371e+00
 -1.1354976e+00
  5.1869594e-02
 -1.5293711e+00
  6.2939924e-01
 -3.7155676e-01
 -1.8345339e+00
  2.1156499e+00
 -2.5415051e-01
 -8.0943212e-02
  1.2760782e+00
  3.9628527e-01
 -1.1665119e-02
 -2.4698581e-01
  5.6760539e-03
  5.1826113e-01
 -1.0556353e+00
 -4.9722853e-01
 -1.6392608e+00
  9.7308773e-01
  5.1597795e-03
  4.7010623e-02
  3.2733510e+00
 -4.9669743e-01
  8.7235257e-04
 -2.1479344e+00
  6.6091903e-02
 -1.9248106e-03
  9.8086631e-01
 -1.4703375e-01
 -4.1520383e-02
  5.0465442e-04
  3.2145537e-03
  3.5013701e-04
  6.4100540e-01
 -7.6169556e-01
 -1.0563780e-01
  1.4111243e+00
  1.3868670e+00
 -2.2676252e-01
 -6.3624838e-04
 -5.0758827e-03
  9.5420040e-02
 -1.2515115e+00
  4.2844564e-03
  5.5845873e-03
 -4.5573866e-04
 -4.9255979e-03
  5.0777690e-03
  1.4916130e-03
  1.4702177e-03
  3.2145593e-03
  1.0656363e-01
 -2.3932049e+00
 -5.9499687e-01
 -5.8556521e-01
 -5.0713533e-01
  2.4436279e-01
 -2.2987578e+00
  5.3986353e-01
 -3.7794718e-01
 -2.4642417e+00
  9.0104890e-01
  4.6324781e-01
 -2.2432238e-01
 -1.3202477e+00
 -1.5251347e-01
 -1.6412854e+00
  8.7434536e-01
  2.7622068e-03
  6.5042013e-01
  4.4538879e-01
  1.5477014e+00
 -2.0754337e-03
 -5.4064387e-01
  1.3261048e+00
  1.0894598e+00
 -1.8614113e-02
  1.9097322e+00
  1.4306974e-01
  2.1920041e-03
  5.6782854e-03
 -1.9416724e+00
 -1.7037871e-03
  1.1389365e+00
  1.9459701e+00
  1.0241853e-01
  6.7646176e-01
  1.5219194e-01
  1.8530174e+00
 -5.9448689e-02
 -2.0802598e+00
 -3.0385199e+00
  2.4634644e-01
  3.9532396e-01
  2.3817334e-02
  2.2278541e-01
  1.1109570e+00
  1.9908313e-01
 -6.0577691e-01
  3.8709666e-04
 -9.6986652e-04
  1.5191232e-01
  4.2654020e-01
 -1.4423688e-01
  5.0115371e-03
 -6.9587480e-04
 -1.8613888e-03
  9.0749627e-01
  1.4269875e+00
 -1.3464840e-01
 -6.3558644e-01
 -1.9640987e-01
 -6.0282147e-01
 -5.1277280e-01
 -3.2910798e+00
  5.2302802e-01
  2.3060236e+00
  3.7232082e+00
  2.6357138e+00
 -4.3428805e-01
 -1.6913734e-03
 -8.5348338e-01
  1.8023710e-01
  2.5830781e-01
 -7.2368351e-03
  2.4472654e-02
 -1.4786689e-03
 -5.7779950e-01
 -5.5881363e-01
 -3.8428590e-01
 -2.7458742e-01
  7.2978461e-01
 -3.7227923e-03
 -1.8903576e-03
 -1.0803299e-01
  2.5951951e-03
 -1.0112258e+00
  4.6153185e-03
 -3.0489495e-01
 -1.5754755e+00
 -8.3916211e-01
 -3.6787901e-02
  3.0322047e-02
  6.7645535e-02
  3.4728029e-01
  2.2179954e+00
  1.0307392e-03
  2.4715951e-02
 -2.6719168e-01
 -7.4058264e-02
  2.1801496e-01
 -1.2333258e-01
 -7.0227957e-01
 -4.4473950e-04
  7.9638809e-01
  4.7986512e-03
  1.7332255e-03
 -3.2031147e-03
  1.5751573e+00
  7.1573589e-04
  4.5378640e-04
  1.3013127e-03
 -3.2509555e-04
 -4.4393029e-05
  2.2038505e+00
  5.4492372e-01
  4.0851769e-01
 -2.9825032e+00
  9.2533714e-01
 -1.7848663e+00
  6.9233006e-01
 -3.4005842e-01
 -2.8148391e+00
  1.8567840e-02
 -2.1866913e-01
  1.6044859e+00
  4.0162653e-02
 -1.7391062e+00
 -3.2929370e-01
 -3.6947101e-02
  7.0266157e-01
  4.1745996e-01
  7.7376908e-01
  5.1000780e-01
  1.1099808e+00
 -3.0449955e-03
  4.4469371e-02
  3.2625036e+00
  9.7177297e-01
  4.2936685e-03
  3.9723334e-01
  9.9581704e-02
  3.0320311e+00
 -3.0771080e-01
  6.6047561e-01
  8.5645235e-01
  1.1068563e+00
  1.3089032e+00
  1.0459615e-04
  4.5132297e-01
  6.4943278e-01
 -3.5042202e-01
 -4.5817468e-02
  1.3375739e-02
  1.3909346e+00
  9.8184717e-01
 -9.1595836e-02
 -1.4044324e-01
 -2.2861252e-02
  4.0123382e-01
  1.4699677e+00
  6.4888789e-04
 -3.3916247e-03
 -3.7823361e-04
  1.4060393e-01
  3.4947783e-02
  1.2750913e-04
 -1.2276960e-04
  1.7755528e-03
  5.2188838e-01
 -6.7821003e-02
 -9.4480550e-01
  2.0494862e+00
  9.6818089e-02
  9.4842756e-01
 -4.3687731e-01
  2.4231352e-02
  5.7512426e-01
  3.8967043e-01
 -2.4912291e+00
 -3.9957333e-01
  2.3834677e-01
  1.2957925e-01
  4.9130139e-01
 -7.5365907e-01
 -1.2858252e-02
  3.0381538e-02
 -1.3884935e-02
  6.8204419e-04
 -1.2926186e-03
  4.9366612e-02
  1.0743531e-02
  1.8460861e-01
 -2.3837897e-01
  2.0475793e-03
  1.7788892e-03
 -9.4962995e-03
  2.7379536e-03
 -3.7697614e-03
 -8.2229747e-04
 -4.0579401e-03
 -6.4459808e-02
  5.9403747e-01
  5.5791641e-04
 -9.0842339e-04
  1.4240609e-02
 -1.4392788e-03
  2.4478784e-01
  1.1052807e-02
  4.0656497e-04
 -8.9797651e-04
 -1.3542132e-03
  1.2372096e+00
  1.0884523e-02
 -2.5979513e-03
 -2.2126876e-03
 -7.1504246e-03
  3.1392320e-04
  2.0078027e-03
 -2.7058853e-03
 -1.5756227e-02
  1.3643585e-03
 -3.2686254e-03
 -4.4946503e-04
 -6.7113043e-04
 -2.2926955e-03
  3.0612636e-03
 -7.6193298e-04
  3.5642195e-01
  3.7182383e-02
  5.1825315e-01
 -1.1390764e-01
  6.6922582e-03
  5.5085415e-01
  3.6720574e-01
 -1.1577413e-01
 -6.4284176e-01
 -1.5679480e-03
  1.7104717e-03
  1.3371898e-03
  9.4548985e-04
  4.5713809e-04
  3.3697593e-03
  3.5426482e-03
 -6.4431119e-04
 -2.9558750e-04
 -3.0940073e-03
 -2.2415405e-03
  8.9840934e-04
  2.0645524e-03
  5.0716749e-03
 -6.8413070e-04
  3.0249781e-03
 -1.0563232e-03
  4.3271016e-04
 -2.0101597e-03
  6.3536881e-04
  1.9821987e-04
  1.8702622e-03
  5.5777171e-04
  1.6020644e-03
 -2.2069640e-03
 -8.1281643e-03
  3.2510760e-04
 -8.3089359e-02
  1.6601304e-04
 -7.4513839e-03
 -2.1495051e-03
 -9.1782195e-04
 -3.2307955e-03
 -2.4135027e-02
 -7.4893085e-04
 -1.1790249e-03
 -2.1669155e-03
 -7.5115409e-04
 -3.0032900e-04
 -7.0320349e-04
  3.5848163e-04
  1.6385986e-03
  1.3576832e-03
 -6.7109510e-04
  8.6683384e-04
  1.6517521e+00
  3.3472993e-03
 -4.9728650e-01
 -6.9355345e-01
  1.9459156e+00
 -7.1177214e-01
  8.3859861e-01
  6.0375798e-01
  1.0580090e-01
 -2.4810817e+00
 -3.5185263e-01
 -1.0329611e-02
  1.3591534e-02
  1.5013687e-01
 -1.1378351e-01
 -5.8630842e-01
  2.9354151e-03
 -1.1604150e-02
 -1.0845496e-03
  1.1731343e-02
  1.9441849e-01
 -7.7315280e-04
 -8.3029464e-02
 -4.5303929e-01
  3.1552023e-01
  4.5729545e-03
  1.9709554e-03
 -8.3620974e-04
  7.5418276e-01
  1.7957540e-02
  4.7872718e-03
 -1.2121881e+00
  2.0976970e-01
  1.7749427e-01
  1.9576672e-01
  7.0642307e-02
 -8.2242686e-01
  3.5113409e-02
 -4.7220639e-03
  2.2509144e-04
  7.7752676e-03
  1.6959230e-03
  1.4123853e-03
 -4.7660241e-04
  2.4288993e-02
 -9.7303716e-03
 -8.5008585e-01
  3.1900138e-03
 -9.9819864e-04
  4.8348450e-04
 -1.9195259e-02
  8.1995364e-05
  2.0444514e-03
 -7.7676745e-03
  4.9718138e-04
 -1.7640583e-04
 -8.2060456e-04
  2.4606642e-01
 -4.6359369e-01
 -2.7203255e-03
 -9.5046714e-02
 -3.1004677e-04
 -8.4478684e-02
 -6.6180453e-03
 -4.2400286e-01
  1.3291188e-01
  1.1053795e+00
  9.4159512e-04
 -5.7234819e-04
 -4.4622058e-03
 -2.4032616e-03
 -1.7508015e-04
 -1.4321975e-03
  3.3293439e-03
  3.3758259e-03
 -3.2964789e-03
  6.4619370e-03
 -2.9846227e-02
 -2.0251200e-03
 -9.0030208e-03
  2.1341215e-04
 -2.5300446e-03
  1.1316919e-03
  7.0756255e-04
 -1.3720805e-03
 -6.5025212e-03
  3.6127942e-03
 -1.9696506e-04
  2.9487042e-03
 -3.9533931e-03
 -1.6615498e-03
 -1.1170399e-02
  5.7797821e-04
 -5.3304352e-04
  2.2638987e-01
  7.6489133e-04
  8.7345415e-04
 -1.2817518e-03
 -7.7211577e-04
 -3.9033341e-04
 -4.5859226e-04
  3.7032206e-04
  1.6428549e-03
  6.0321959e-03
 -4.1210563e-03
  1.4763576e-03
  5.4584927e-04
 -1.5866414e-03
  9.4609871e-04
  6.7572626e-05
 -2.2965267e-03
  3.2584821e-03
  4.4296557e-01
  3.3243108e-04
 -1.6260560e-01
  8.5737795e-01
  7.2846937e-01
 -5.0317317e-01
  9.9798732e-02
  2.2036110e-03
  1.2677256e+00
 -9.5906347e-01
 -5.2850890e-01
 -1.5596062e-03
  4.7318032e-03
  1.7587100e-03
  1.0045478e-01
 -9.3021896e-04
 -1.3563517e-03
 -2.1312421e-03
  1.4641376e-03
  1.9504857e-03
  2.0787049e-02
  1.0768778e-02
 -1.7311361e-01
  1.7477059e-01
  8.4487017e-04
 -8.6042362e-01
  1.6726475e-03
 -1.6345576e-03
  4.1775736e-03
  1.2914622e-03
  1.7687950e-03
  3.2580846e-03
 -2.6517799e-01
  1.5175454e-03
 -1.7979808e-01
  4.8786122e-03
 -4.3771057e-03
  2.8956481e-03
  1.1404513e-01
 -6.8166112e-03
  1.0066484e-02
  3.4476796e-01
  3.7973210e-02
 -6.4027272e-03
  2.4399864e-03
 -1.6910140e-03
  3.1581998e-02
 -2.5888856e-03
 -3.4365398e-03
 -1.2424500e-03
  9.2467165e-04
 -4.2762599e-04
  3.4218523e-04
 -1.9630694e-03
  1.3754944e-03
 -8.2664832e-04
  7.5008150e-04
  5.0262058e-01
 -4.6155235e-01
 -2.0481984e-01
 -9.7034168e-01
  4.2656207e-01
  4.8239797e-02
 -4.0957910e-01
 -1.7904636e-01
  7.6955998e-01
  1.0059531e-01
  5.0549977e-03
  7.5308053e-04
  5.0699728e-04
 -9.8820877e-01
  4.9047914e-01
 -1.4845775e-02
  2.3849835e-03
  1.3544061e-03
  1.7705487e-02
 -2.9755852e-04
 -4.3295553e-05
 -5.0627448e-02
  1.4883581e-01
 -2.5632491e-02
 -2.5952992e-04
  1.2736043e-02
  4.2009592e-04
 -4.8011639e-03
 -6.6177844e-04
  7.3203468e-03
  2.6483867e+00
 -6.7399830e-02
 -7.5037383e-02
  9.7172149e-04
  1.5226273e-03
  4.4382372e-01
 -4.4584411e-04
  9.3093170e-03
 -6.9913629e-04
  8.3409607e-02
 -1.1312671e-01
 -2.3526471e-02
 -1.6464066e-02
  3.4758481e-04
  5.1232649e-04
  1.7709121e-03
  3.0854051e-03
 -3.1284557e-03
  2.7352758e-04
 -2.1153128e-05
  3.0597104e-03
 -1.1844209e-03
  2.2542090e-03
 -1.5447151e-04
  1.7831324e-02
  7.8619625e-03
 -3.7182850e-01
  1.3072264e-01
  1.0692208e-01
  3.1570089e-01
 -1.9904053e-02
  1.3890108e-02
 -8.8657002e-04
  1.5966015e-02
 -1.2848634e-02
 -7.9791963e-02
 -4.0182925e-04
  4.1616615e-03
 -1.3584644e-03
  1.0660347e-01
 -7.1696768e-04
  2.9598808e-04
  9.9352223e-04
  1.5378355e-03
 -7.3382995e-05
 -1.4388043e-03
  1.2441877e-03
 -1.9311586e-03
  1.4601079e-03
  4.5273374e-04
 -7.9348497e-04
 -1.3630295e-03
 -5.9196507e-05
  1.1023293e-03
 -4.0944642e-03
 -1.6608668e-03
  8.3423720e-04
 -4.8900136e-05
  3.3217575e-03
  2.5873210e-03
 -1.7904062e-03
  1.9338650e-03
 -1.8998765e-04
  1.3002387e-03
  6.2616193e-03
  1.0531994e-03
  4.4153640e-03
  7.6658308e-04
 -2.0079127e-04
  9.6499408e-04
 -7.5009149e-03
  6.8624393e-04
 -1.9225081e-03
  7.6764787e-05
 -4.1365338e-04
 -1.0509373e-03
 -1.0094827e-03
  9.9300560e-05
 -1.6754095e-03
  1.2993923e-03
 -1.3136720e-04
  2.2201610e+00
  2.2257619e+00
 -1.6799328e-01
 -5.2740812e-01
  3.6725509e-01
 -8.3842599e-01
 -3.4368309e-01
  1.4506805e+00
  2.1367245e+00
 -1.2764612e+00
 -1.1738100e-01
  8.6137961e-04
  8.3120590e-01
 -4.3579161e-01
  7.7704704e-01
  3.6716074e-01
 -5.8617053e-04
 -1.9912273e-03
  2.7493712e-02
  3.4087914e-01
 -2.5690469e-04
 -6.6172134e-04
 -2.1957152e+00
 -2.3892219e+00
 -6.3571078e-01
 -5.3546678e-02
 -4.4120193e-01
 -1.5064935e-03
 -7.0550358e-01
  4.2340586e-01
 -5.0282395e-03
 -3.3509619e+00
  6.9061294e-02
 -6.9564439e-02
 -1.9348407e-02
  1.3615685e+00
  3.2255445e-03
  6.4359289e-01
 -4.1174582e-01
  1.9463230e-02
 -5.5392849e-01
  7.7814035e-02
 -1.2528071e+00
 -1.0432129e+00
  1.1463070e+00
 -3.6866106e-03
 -8.9580518e-01
  3.3338176e-04
 -3.5090505e-03
  3.6109671e-01
 -1.8100850e-01
  2.1672300e-03
 -1.0361933e-03
  4.0611939e-04
 -4.6244562e-03
  1.6595330e-03
  5.8551959e-05
 -8.4831018e-04
  3.0884764e-03
  9.9045904e-03
  5.3354755e-02
  3.8814560e-05
  2.5937730e-03
 -2.3821129e-04
  1.5295165e-03
  1.2698038e-03
 -2.9284297e-03
  1.2862577e-02
  4.0401646e-04
 -3.7391743e-04
  1.8344345e-03
 -8.0262439e-04
  3.2192736e-04
  3.7098099e-03
 -3.0918725e-04
 -1.3667758e-03
  5.9437682e-03
 -2.1533210e-02
  2.6794596e-04
 -1.0080447e-03
 -7.9164695e-04
 -7.9137576e-04
 -4.1806165e-05
  3.2892546e-03
 -5.5001661e-02
  2.4849568e-03
 -1.5634245e-05
  6.3377456e-04
 -1.3203516e-04
 -3.6654228e-04
  6.3748070e-04
  2.6331609e-05
  9.1850851e-04
 -1.1565277e-04
 -9.4615715e-04
 -4.8498600e-04
 -1.2720538e-03
  3.4950981e-03
 -6.9250644e-04
 -2.2227435e-04
  2.1611033e-03
 -2.4994891e-03
 -1.9019729e-04
 -2.7833198e-04
  3.8466863e-03
 -8.1254356e-04
 -5.5614086e-03
  1.5645006e-03
  5.3546362e-04
  6.7481925e-03
 -5.7328178e-04
 -6.0385175e-04
 -2.4319752e-01
  1.0709062e-01
 -6.9161421e-01
 -7.3054719e-01
 -1.4875584e+00
  3.4434456e-02
 -1.5348351e+00
  1.2219268e+00
 -8.0404973e-01
  3.1968895e-03
  1.3797781e+00
  5.2096816e-03
  1.3447922e-03
 -6.2338449e-02
 -1.4168502e+00
 -1.3832750e-03
 -3.1620096e-03
 -3.2128731e-03
 -1.9398391e-04
  1.5690388e-03
  1.4543899e-04
 -8.6953463e-05
 -6.3183188e-02
  2.7741229e-03
 -1.4418364e-04
 -2.8335373e-03
 -1.6939475e-03
 -7.8001333e-04
  7.3216911e-03
 -1.7188466e-03
  8.6495206e-03
 -7.8419689e-03
 -3.7348550e-02
  7.8101414e-03
 -1.7847484e-03
 -2.4848881e-03
 -2.6729733e-03
  3.3401572e-03
 -1.3702753e-03
  1.2450883e-03
  4.8470348e-03
  1.3754461e-03
  2.7667000e-03
  7.1119738e-04
  1.3656475e-03
 -2.6058456e-02
  2.2634788e+00
  1.3219111e-03
 -7.2470005e-04
 -1.1566735e-04
 -3.4563988e-03
  3.3974787e-04
 -1.1280512e-03
  4.5995740e-03
 -7.3328054e-05
  2.1786545e-04
 -2.9402965e-01
  7.8876086e-02
 -1.4659970e-03
 -2.4565393e-02
 -9.4526179e-02
 -4.0815340e-04
 -2.2346320e+00
 -1.5811522e-04
 -6.5177643e-01
 -5.4074813e-02
  4.4467580e-02
 -7.6541968e-04
  1.5161642e-03
 -2.1398738e-03
 -1.9799039e-01
 -5.8605365e-04
 -1.8671001e-04
 -3.6894754e-04
  3.6966363e-03
  1.5621461e-03
 -2.9321123e-02
  3.6908961e-03
  1.5204724e-04
  1.0748236e-02
 -1.2639050e-01
 -2.9588693e-03
 -5.6176283e-04
 -2.0206425e-02
  2.0027682e-04
  6.8522611e-04
  7.2453135e-05
  2.3483108e-04
 -4.8748508e-01
 -1.6204823e-02
 -5.0192274e-04
 -1.1174727e-04
  5.2223406e-03
 -8.3114086e-03
 -1.0284072e-02
  1.2420816e-02
 -1.8514076e-04
  5.0800601e-03
  1.9649502e-03
  1.9112068e-04
  7.4350729e-04
  1.1107958e-03
 -2.0022651e-03
 -7.6416211e-04
  6.3312502e-04
  2.0985580e-03
 -3.8623493e-03
  1.5946024e-03
  5.2512955e-04
  5.0901424e-04
  9.0203201e-03
  1.5645557e-03
 -8.3585000e-01
  9.6826839e-01
 -1.8879297e-01
  4.8432693e-02
 -7.3929024e-01
  1.5021695e+00
 -2.1048067e+00
 -3.6758563e-01
 -3.2878857e-02
  7.5835472e-01
  2.1089602e+00
 -9.7070426e-01
  1.1109199e-01
 -3.2065409e-01
 -3.5649791e-01
 -6.7561907e-01
  1.1884507e-02
  5.9021199e-01
 -4.0201121e-03
 -4.3993086e-01
 -3.3369067e-01
  1.4567077e-01
  8.7568623e-01
 -1.4229238e-01
 -1.1358356e-01
 -2.2177987e-03
 -9.8243684e-01
  1.1352326e+00
 -1.0035440e+00
 -5.2671307e-01
 -6.1103585e-04
 -4.2714797e-02
 -9.6596904e-02
 -3.3743944e-02
  5.3951895e-01
 -1.1447338e-01
  7.5485098e-01
  1.1776033e-01
 -3.3660073e-02
 -2.5408310e-01
 -2.6457575e-01
 -1.9284232e-01
  1.4511666e-01
  4.2747166e-03
  1.2334543e+00
  5.2800632e-01
 -4.0346826e-03
 -1.5804092e-03
 -1.9614620e-04
 -1.8494130e-03
  1.0909968e-02
 -3.9620680e-04
  1.4381070e-03
 -3.6081588e-01
 -2.8800499e-04
 -8.7706037e-03
 -2.5666418e-04
 -1.1917646e-03
  5.7875142e-02
  5.1901797e-03
  1.2933871e-02
 -1.1433667e-03
  2.9738371e-03
  2.7155821e-04
  1.7839478e-02
  5.5567914e-04
 -1.3257383e-01
 -2.0251257e-04
 -4.1908883e-03
 -7.9886923e-03
  6.3857168e-04
  4.6675946e-03
 -1.0408557e-03
 -4.0515736e-03
 -1.3198717e-03
  9.8932092e-04
 -5.2315272e-02
  5.0137436e-04
 -1.2414425e-03
  1.5267753e-03
 -2.4358433e-04
  1.8536468e-03
 -1.2941130e-03
 -3.8723142e-03
  2.5563971e-03
  1.2795975e-03
  7.3376005e-03
 -1.6104688e-05
  1.3879042e-03
 -2.6260095e-03
 -1.8609049e-03
 -1.0955513e-03
  2.4718209e-03
 -4.2807462e-04
 -9.1761030e-04
  2.5183085e-04
 -2.5045529e-03
  1.5430561e-03
  1.0576823e-04
  5.0435262e-04
  5.4723598e-05
 -3.6558160e-04
 -1.8259325e-03
 -5.8699334e-03
  1.3790490e-03
  4.7872018e-04
 -7.2928020e-03
  3.4709066e-02
 -9.6465070e-03
 -1.9697598e-03
  1.9794492e-04
  1.3078349e-03
  2.6250944e-01
 -1.5064754e+00
  5.9684741e-01
  6.9172287e-01
  7.0615131e-01
 -1.0864656e+00
  3.7673881e+00
  1.2134884e-01
 -1.5005311e+00
 -1.4506896e+00
 -9.8620307e-01
  1.1145860e+00
  2.5518769e-01
  1.7427716e+00
 -5.4275894e-01
 -3.5785234e-01
 -1.0963361e+00
  1.2391619e-01
 -2.5885429e-03
  1.1048344e+00
  8.8982219e-01
  4.7530377e-01
 -8.3425760e-01
  1.6519666e+00
  6.1168496e-02
 -2.6824020e-03
 -2.3400733e-02
 -4.9785310e-03
 -4.0715320e-05
  9.2073865e-02
  3.4012944e-03
 -2.3559370e+00
  3.8464892e+00
  1.3171914e-01
  8.4758624e-02
 -1.8946710e-03
 -8.6496967e-01
  8.9128923e-01
 -8.3306456e-01
  4.2799438e-04
 -2.1795437e+00
  7.0119038e-02
  1.6911317e-02
  7.3172036e-03
  4.3872729e-01
 -8.1820544e-03
  7.0446056e-01
  8.6732634e-04
 -1.7161034e-04
  2.3058590e-03
 -2.9576154e-02
  1.0308662e-02
  3.2128792e-03
 -3.7606570e-03
 -3.2322052e-05
  1.9831357e-03
  2.0123114e-01
  3.8032827e-01
  1.2938364e+00
 -3.2227865e-01
 -1.1657456e+00
  5.4262821e-02
 -1.4929039e+00
 -2.5491638e+00
 -7.2446597e-01
  3.2964511e+00
  7.4527043e-01
  2.3979822e-01
 -5.4235701e-02
 -1.6720467e+00
 -7.3357052e-01
 -2.2378968e-02
 -9.3053579e-03
  7.9315586e-04
  9.3028836e-02
 -1.0259783e+00
 -8.8812603e-04
  2.3460013e-03
  3.2375264e+00
  3.3371168e-01
  9.5558339e-01
 -4.3808934e-03
 -1.2544006e-03
 -3.4937880e-04
 -3.1296051e-01
 -4.9636401e-02
  4.0970972e-01
  1.9225576e+00
  1.1129453e+00
  6.2549650e-04
 -2.6501605e-01
 -1.2891524e-01
  2.7297486e-03
 -7.2003150e-01
  1.0951921e-01
 -3.2427625e-03
 -3.4032211e-01
 -1.6797234e-01
  9.9697523e-04
 -4.4910287e-04
 -1.1636639e-03
  1.9161906e-02
  2.3504548e-01
  2.8108263e-03
 -8.1475082e-06
 -2.2854354e-02
  1.7737052e+00
  8.2493050e-04
 -1.8806696e-02
 -1.9495337e-03
 -1.7956087e-03
  1.7093837e-02
 -1.9127076e-02
 -2.7234653e-01
  9.9790720e-03
  3.9794152e-03
  5.7688862e-01
 -2.0713857e-01
  7.2168736e-03
  1.7095950e-02
  5.3557235e-01
 -4.0783736e-01
 -6.1634451e-01
  7.7142953e-03
 -3.1294301e-03
  3.4266824e-03
 -2.6877306e-03
 -5.1569948e-03
  1.3272145e-03
 -4.5216801e-03
 -7.6492090e-04
  1.9904687e-03
  4.9832184e-04
 -1.0488380e-03
  8.6624862e-04
  9.1143481e-02
 -7.4889738e-04
 -1.1961563e-03
 -8.5980678e-04
 -4.8953430e-03
  5.2929688e-03
 -2.4312586e-04
 -8.4958570e-03
 -1.6790645e-03
 -3.9132897e-04
  2.7486645e-03
  2.7156173e-04
  1.5077493e-02
  1.1115909e+00
 -1.0225664e+00
 -2.7869309e-03
 -5.3903752e-04
 -2.4348344e-03
  2.5421631e-04
  1.7979099e-05
 -2.0787017e-04
  1.5853839e-04
 -9.3531813e-03
  2.6662976e-03
 -1.4928760e-02
  2.6577144e-04
 -2.0388514e-03
 -4.9814819e-03
 -2.9767349e-03
  5.6110119e-05
 -1.2007545e-03
 -1.6710071e-03
  1.0499886e-02
  1.1786241e-03
  2.6821344e+00
  2.0048735e-01
 -1.8722044e-01
 -7.2919810e-01
 -2.1760418e+00
 -1.1058253e+00
  6.8224400e-01
  1.5361185e+00
 -2.8290651e+00
  5.1523469e-02
 -1.1312535e+00
  4.0228921e-01
  6.9144768e-01
  1.5332344e+00
 -1.0517877e+00
  6.6577214e-01
 -1.7872180e+00
 -7.2800559e-03
  8.7515540e-02
 -2.7840791e+00
 -1.2885168e+00
  1.9089276e+00
  2.6247759e+00
 -1.2566558e+00
  2.0827327e+00
 -3.2421333e-01
 -4.2095734e-03
 -8.5625488e-01
 -2.4251711e+00
 -3.1958175e-01
 -1.4429390e-01
  8.0188000e-01
 -1.1347631e+00
  3.0931761e+00
 -8.1481957e-01
  8.2328010e-01
  4.8627296e-01
 -9.2864829e-01
  1.3205105e+00
  3.1776589e-01
 -1.1726133e+00
  8.4927298e-02
  4.5472643e-01
  3.2261752e-02
  1.0835366e-01
  2.1084656e-01
  7.2787830e-04
  1.8583932e-03
  1.0907000e-01
 -3.2692205e-02
 -2.2490837e-01
 -3.3898926e-03
 -1.4908187e-03
 -1.9605225e-03
  1.4968321e-01
  1.4024986e+00
  5.2738792e-01
  2.9463534e+00
 -6.2367003e-02
  4.2527497e-01
  1.7050848e+00
  1.9109415e-01
 -5.9972781e-01
  2.6376873e-02
 -6.9623731e-02
 -7.8663391e-01
  1.3784623e-01
 -9.2650874e-04
 -3.0504894e-01
 -2.5628310e-02
  2.0610358e-04
 -3.6536027e-03
  4.8016405e-05
 -1.4453744e-05
 -3.5384730e-02
  1.1387037e-02
  2.8469532e-03
 -7.4125540e-01
  1.1001519e-01
  2.2269474e-02
 -1.1897450e-03
 -1.2775711e-03
 -1.2310369e-02
  1.2247191e-02
  3.6355478e-04
  3.2782287e-04
 -1.2820613e-02
  1.9103438e-02
 -3.4758796e-03
 -9.6095847e-03
  2.1841484e-03
 -6.1505842e-03
  1.7056212e-02
  1.8406843e-01
 -3.9051069e-04
 -1.1334487e-02
 -2.2059183e-03
 -5.4263300e-01
 -3.4450085e-03
  3.5716989e-03
 -1.6323216e-02
  1.6862996e-02
 -2.2635721e-03
 -1.1815218e-03
 -2.2609268e-04
 -5.2739200e-03
 -2.1833028e-03
 -1.2313582e-03
  6.7070916e-02
  2.8535302e-04
 -4.1485564e-03
  1.4510249e+00
  8.7480158e-01
  1.0532346e+00
 -1.2985867e+00
  2.6802337e+00
 -4.7484689e+00
 -1.2246557e+00
  3.7613430e+00
  1.7294168e+00
 -1.8497993e+00
 -7.6481032e-01
  8.9966226e-01
 -3.7334804e-04
 -7.5621641e-01
  1.5607889e-01
 -4.3529786e-02
  1.5496996e-03
  7.2960830e-01
 -1.1337269e-02
  5.1615340e-01
  1.8249457e-01
  3.6072251e-03
  9.3880378e-02
  4.1538653e-01
  7.9262298e-01
 -1.8397731e-01
  3.3932376e-01
 -1.6322918e-04
  5.4015983e-02
  1.1163106e-01
  4.4603515e-01
  2.0202693e-01
  2.1212277e+00
  3.2581870e-02
 -4.4677624e-01
 -9.8973401e-02
 -1.2253504e-02
 -2.6884697e-02
 -1.1330990e-01
  3.4462001e-02
  2.4197756e-01
  1.0377774e+00
  1.4553431e+00
  7.2646211e-04
 -1.0985839e-03
 -1.3051230e-04
 -7.4734285e-02
 -2.7027496e-03
 -4.1916682e-03
  1.0095646e-02
 -7.8114861e-04
  1.9009159e-03
  1.4619735e-03
  6.6013599e-04
 -4.0895990e-04
  1.0318999e+00
  3.1946182e-01
  4.2624731e+00
 -1.0563817e+00
 -6.0093045e-01
 -1.8595801e-01
  7.7086231e-03
 -1.0147488e+00
  4.8907253e-01
  5.8262438e-01
  1.8420410e-01
  9.3057222e-04
  2.3451692e-01
 -5.5728916e-02
  1.0713878e-01
  7.8959934e-02
  1.7354826e+00
 -4.1446567e-04
 -9.4686687e-01
 -3.6691185e-02
  2.2472262e+00
  1.7045404e+00
  7.8705364e-01
  4.3980408e-02
  6.4910888e-03
 -2.0043904e-01
 -2.5045425e-02
  1.5917544e-04
 -5.3443154e-03
  3.2690594e-01
  2.0889762e-04
  1.2882798e+00
  3.6423552e-01
  1.1946430e-01
  1.0627173e+00
  7.7300920e-04
 -1.1659744e-03
 -1.2919644e-03
 -8.1670314e-01
 -1.5493601e-02
  8.4225212e-05
  6.0655761e-01
  4.2341553e-04
  3.6322098e-02
 -1.2025954e-03
  3.1751292e-03
  3.4353105e-04
 -9.6432015e-02
 -2.6349782e-04
 -3.8968548e-03
 -1.9208404e-03
 -8.9701833e-05
  5.7501486e-03
  8.0791992e-01
 -1.6884790e-03
  1.2615991e-04
  8.8924114e-03
 -1.5222141e-01
  1.8666914e+00
 -9.2164373e-01
 -1.7383708e-01
  5.8455789e-01
  9.2276931e-01
 -1.7921048e+00
 -1.9981991e+00
 -1.4440645e+00
 -1.6491634e-01
  1.6353353e+00
  6.1897385e-01
  5.6173652e-01
  8.1462801e-01
 -2.2028673e+00
 -8.3412510e-01
 -1.2754680e+00
 -2.0489775e-01
 -2.3539665e-03
  1.3748726e+00
  6.0723287e-01
 -1.3463856e-03
  2.9347761e+00
  2.6898083e-01
 -2.3508237e-01
 -2.2085982e-04
  3.9947714e-04
 -1.4776255e-03
  5.0814712e-01
  9.2792307e-04
  1.2885938e+00
  2.3453359e-01
  1.9218352e-01
 -2.9407471e-01
 -2.5125352e-01
 -7.6089370e-01
  8.2034208e-03
  2.3327146e+00
  1.0742216e+00
  4.1524395e-02
 -1.1764895e+00
 -1.1733820e-01
 -6.2928176e-01
 -2.8935537e-01
  7.7630199e-02
  1.7203363e-03
  6.7665106e-01
  1.4743542e-02
 -3.1670716e-03
  1.1733707e-02
 -4.5280886e-01
 -9.7243901e-04
  1.7702390e-04
 -2.3438863e-03
 -1.4774740e-03
 -5.7775906e-04
 -1.0786203e+00
  1.0710473e+00
  3.3044348e+00
 -5.2701586e-01
  1.0957482e+00
 -3.9977467e+00
  7.8474700e-01
  1.6902529e-01
 -2.1330953e+00
 -1.3981909e+00
 -9.3537623e-01
 -7.7112786e-02
 -1.0528611e-03
  2.3756637e-01
  2.9672047e-01
  4.3096510e-04
  7.7422155e-04
 -1.3754086e-02
 -1.8051338e-03
  5.9801269e-02
 -1.0854091e-02
  1.7548423e+00
  4.5703173e-01
  1.7831588e+00
  1.0664585e-03
  3.0497643e-01
 -5.7951376e-05
  7.8110705e-04
  1.8436430e-01
 -6.2712893e-04
 -1.8982261e+00
  2.9623425e-01
  5.2243072e-01
 -4.1011977e-01
  9.8560296e-02
  1.5631825e-02
  7.1852244e-03
  2.7346167e-01
 -7.8567388e-03
 -5.5872744e-01
 -6.6909499e-02
  2.9360533e-01
  4.0192541e-01
  9.1209692e-01
  1.0073442e-01
  5.9549878e-03
  6.2451992e-02
 -1.5102745e-03
  2.6254430e-03
 -1.5860191e-01
 -7.4785524e-03
  2.9110725e-04
  1.9317603e-04
  5.5929758e-03
 -1.9426008e-05
 -1.3046477e+00
 -1.6629716e-02
 -7.3595554e-02
 -1.6802712e-01
 -1.0603420e-01
 -1.0209181e+00
  6.4253259e-01
 -3.3438250e-01
 -3.4186044e-01
  2.5064564e-01
  5.4473788e-01
  7.5272870e-01
 -3.3351423e-03
  4.1418326e-01
  1.8402538e-03
 -3.3424231e-01
 -1.3006835e-04
  8.1135510e-03
 -2.5832592e-02
  1.2179735e-03
 -3.1268210e-03
 -7.2457887e-02
  3.2001037e-02
  1.6833802e-01
 -6.9156304e-02
 -1.6052309e-01
  7.9635121e-03
 -2.7025029e-01
  6.9403529e-02
 -6.0320079e-02
 -1.0416155e-03
  2.2224151e-03
  7.2004251e-02
 -6.5884215e-01
 -6.2537281e-04
 -5.6758337e-04
 -4.0010044e-01
  8.0076553e-02
 -7.1160205e-02
 -1.8626942e-01
  7.3695322e-03
 -7.6445350e-03
 -1.4530040e-02
 -5.1582942e-04
  2.1483875e-03
  3.0872281e-04
  3.4343126e-01
 -3.9562713e-03
  2.5206849e-03
  5.1865698e-04
 -4.2968968e-04
  2.0243971e-02
 -5.8065467e-03
  1.4633609e-03
 -5.1422250e-03
 -1.9518798e-03
  2.1150862e-03
 -1.8971707e-01
 -7.0774686e-01
 -8.9474648e-01
  5.0473827e-01
 -6.1888301e-01
  1.2431227e+00
 -2.1696198e-01
 -1.6804221e-01
  5.0176448e-01
  5.3779238e-01
  3.7289003e-01
  7.4249931e-02
  4.1611917e-02
  4.6160546e-01
 -2.4570753e-01
  5.6410688e-01
  6.5756059e-04
  5.0489083e-03
  8.2354678e-04
  4.0607870e-01
 -2.4756431e-03
  3.3035595e-02
  1.4709020e-02
 -8.8111854e-01
  5.3166943e-03
 -8.9282775e-04
  5.6075020e-04
  6.4126274e-04
 -5.8651060e-02
  1.0391895e-03
 -4.7766805e-02
 -9.1241207e-04
 -1.8227129e-01
 -3.1734982e-03
  3.4130546e-03
 -1.5805480e-03
  1.8141094e-03
 -1.0599203e+00
 -1.2874503e-01
  6.2852167e-03
 -8.6801668e-04
 -2.7308739e-03
  1.5561939e-03
  7.3893480e-03
  2.4666151e-03
  2.3374932e-03
  1.3606487e-02
  1.7809347e-03
  3.3663944e-03
 -1.5939990e-03
  5.7999563e-04
  1.4521384e-03
  2.5028323e-03
  3.5430121e-04
  5.9792423e-04
 -1.9649633e-03
 -7.0017884e-03
  3.7410313e-01
 -1.0584689e+00
 -3.5063514e-01
 -8.3970129e-01
  5.8631009e-01
 -9.5704067e-03
 -6.5797573e-01
 -4.8227188e-01
  3.7390977e-01
  1.4946524e+00
 -7.5579970e-04
 -4.2041834e-02
 -2.2370275e-05
 -2.8563058e-02
  3.7688965e-01
 -5.0298691e-01
  1.8388298e-03
 -9.9261280e-04
  1.0565838e-01
  2.2806039e-02
 -1.5269171e-01
 -1.2500574e-01
 -4.5942736e-01
 -1.9980072e-04
 -5.3890731e-02
 -1.2989296e-03
 -4.9997875e-03
 -2.8100675e-03
 -1.2870367e-04
  3.4819204e-01
  6.5693371e-02
 -2.2638321e-02
  7.9624454e-04
 -5.4849926e-03
  7.8129821e-04
  6.1362460e-03
  3.5596438e-02
 -1.5723734e-03
  6.8477580e-05
 -1.0641234e-02
 -5.2244562e-01
 -5.8122450e-03
 -2.5264372e-03
  1.6398363e-04
  2.5214620e-03
  2.6815671e-02
  9.2288526e-04
  1.2076198e-04
  8.1686588e-04
 -5.5508893e-02
 -3.3224359e-02
 -4.7630087e-02
  3.0958350e-03
  1.6435893e-04
  5.0598262e-03
  4.0067333e-01
  3.7551937e-01
 -1.4893916e-01
  7.2709692e-01
  3.0097878e+00
  7.1258569e-01
  3.8335013e-01
  2.1948092e+00
  2.3175144e+00
 -1.8223293e-01
  3.7368098e-01
 -5.3046830e-03
 -2.4255859e-03
 -1.8094379e+00
 -6.0099900e-01
  2.1659029e+00
 -1.6771980e-01
 -3.0550193e-03
  1.1422316e-01
  9.8614597e-01
  3.1249118e-01
  5.4364756e-04
 -2.6043835e-01
  5.4032999e-01
  3.2417026e-01
 -1.1250980e+00
  2.6824045e+00
  5.0532963e-04
  5.0690222e+00
 -8.4788352e-01
 -7.6737991e-03
 -2.4830670e+00
 -3.9651239e-01
  1.7113679e-03
 -2.1157354e-04
  7.6001266e-04
 -2.1292038e-02
  1.9298887e-01
 -1.2204489e+00
 -1.4667287e-03
 -1.2003700e-02
 -1.0284249e+00
 -1.3695078e-01
 -7.2087914e-02
  9.5381618e-01
  1.9807620e-03
  7.1129217e-03
 -2.1644726e-03
 -9.2776990e-01
 -2.1532860e-03
  2.9245380e-03
 -1.5253009e-03
  1.0617088e-04
 -1.8931001e-04
 -8.7067438e-04
 -6.8967300e-03
 -1.9256164e+00
 -5.6607014e-01
 -4.6771964e-01
 -3.2699427e-01
  1.2543216e-01
 -1.5594047e+00
  7.9449243e-04
  1.6769057e-04
 -8.3000636e-01
  1.0743856e+00
  4.0697306e-01
 -5.1251166e-03
  3.8691285e-01
  1.4551637e+00
 -1.6972718e-04
 -1.5418276e-03
 -5.1823455e-01
  7.0862094e-04
  5.3151785e-03
  1.0400404e-03
 -8.7433768e-04
 -2.0028031e-03
  1.0236623e+00
  5.8925700e-01
 -1.1237303e-03
 -1.4920293e-03
 -6.6788695e-03
  3.9293538e-03
 -1.7678368e-04
 -3.1343249e-03
  6.0984516e-04
  9.0122980e-01
  3.1043452e-01
  3.6635295e-02
  1.9551783e-03
 -1.0328843e-03
  6.9713918e-04
  4.7135904e-02
  5.5515390e-02
 -1.1703681e-04
  2.9542595e-01
  5.9106858e-03
  7.0463964e-03
  7.5471506e-04
  1.2867637e-01
  2.6480837e-02
 -1.8019212e+00
  2.8694407e-03
  3.9566159e-03
 -1.0305048e-03
  6.0792384e-04
 -2.8037534e-03
 -9.3741859e-05
 -9.3458139e-04
  2.6897462e-03
  2.4626204e-03
 -1.1953333e-03
  7.3269104e-05
 -5.0944951e-03
  1.5792930e-03
 -9.0879382e-04
  6.8366062e-04
 -2.3007343e-02
 -1.2178207e-03
 -4.9435126e-04
  4.1990462e-04
  3.6741742e-03
 -1.5391200e-03
  1.8882591e-03
  7.3364162e-04
 -3.2364803e-03
 -6.5571966e-04
  3.8051594e-04
 -4.8223590e-03
 -7.8731991e-04
  1.2338153e-03
 -4.2993412e-03
 -5.5076587e-03
 -1.0207089e-03
 -6.4146691e-03
  9.9986803e-04
  4.2786058e-02
 -4.9633225e-03
  4.0996994e-04
 -9.0380304e-04
 -1.0839486e-03
 -1.0142020e-03
  1.2333975e-03
 -3.8966534e-04
  9.0430287e-04
 -2.5921727e-03
 -5.3826434e-04
  1.8321931e-03
 -3.0985458e-03
  1.2668498e-03
  1.2931289e-03
  1.1548699e-03
  7.7647605e-04
 -3.6044864e-03
 -1.4758405e-03
 -2.5789030e-03
  1.0981899e-03
 -2.3783189e-04
 -2.4885489e-04
 -2.6011975e-03
  5.0380948e-04
 -1.7022453e-03
 -3.4414059e-03
  4.0511591e-03
 -6.3002453e-04
  1.9510281e-04
  8.6635380e-04
  4.9183264e+00
  4.9534707e+00
  4.2496505e-01
 -3.5241320e+00
  6.9115740e-01
 -3.1466925e+00
  1.6972959e+00
 -5.8100557e-01
 -2.7023021e-03
 -1.3524613e+00
 -1.5532185e+00
  6.2205720e-01
 -4.6335635e-06
  5.0664079e-01
  1.0417960e+00
 -3.2985839e-01
  2.6156250e-01
  2.1355453e+00
  5.9856698e-02
  2.8096442e+00
  5.7386318e-03
 -3.6827740e-03
  1.1234432e+00
  1.9775264e+00
  2.0510203e-03
  3.6930463e-03
 -8.8352739e-04
  1.5860009e-03
 -2.3250334e+00
  3.6145335e-03
  5.3628259e-03
 -9.9393004e-01
  1.7978728e+00
  5.9504673e-04
  1.7754972e-03
 -1.1826403e+00
  2.4383917e-02
  2.1070232e+00
 -2.3426883e-02
  2.5641378e-02
 -1.0466421e+00
 -3.1242594e-03
 -1.2771058e-01
  3.8938310e-02
  2.7597114e-01
 -1.5272941e-04
 -1.4435289e+00
  3.1197788e-03
 -2.5879235e-03
 -4.1660187e-03
 -2.8989682e-04
 -2.2018715e-04
  1.3677767e-04
 -2.1678170e-03
 -1.2605437e-03
 -7.4756454e-04
 -1.0893071e+00
 -2.2939270e+00
 -2.0628164e+00
  1.6638190e+00
  6.4771742e-02
 -1.6747077e+00
  1.5900483e+00
  1.6012949e+00
  2.2536204e+00
 -1.2764527e+00
 -2.3945668e+00
 -4.7243795e-01
 -4.6462953e-01
 -4.1582316e-02
 -5.8794487e-01
  7.1711230e-01
 -1.4217302e-01
 -8.0900186e-01
 -6.0409673e-02
  2.1721690e+00
  4.7487542e-01
 -5.2436930e-01
 -3.3044827e-01
 -8.9197356e-01
  2.8099850e-02
 -2.9003078e-01
 -1.1758633e-04
  2.4632448e-03
  3.1996083e+00
  3.3307230e-01
  3.6759380e-01
  1.7835295e+00
 -1.2081759e+00
  6.6178226e-01
  1.4950158e-01
  1.4361210e+00
 -4.1840360e-01
  1.5282659e-01
 -2.2349108e-02
  4.4337925e-01
  8.9672101e-01
 -4.0825769e-02
  3.0824214e-02
  1.4075077e-01
 -1.1007357e+00
 -9.1333641e-03
 -1.1929687e-01
 -1.7514415e-02
 -7.5555881e-03
 -9.0623079e-03
 -1.9898916e+00
 -9.6773106e-04
 -2.0188906e-03
  3.9796659e-04
  9.9138852e-05
 -2.8861529e-01
 -4.5276573e-01
  8.9784348e-01
 -1.6334205e+00
  1.2385958e+00
 -2.5797365e+00
  6.0326743e-01
 -3.0231616e-01
 -8.9808029e-01
  4.9641231e-01
  4.9268970e-01
  9.7571248e-01
 -2.4313946e-01
 -1.0301804e-02
 -2.8553933e-01
 -6.7118309e-02
  7.9111665e-02
 -2.3495709e-03
  2.6954166e-04
 -8.6636385e-03
  3.7861038e-02
 -1.3626047e-03
 -8.6712244e-04
 -8.0788322e-02
 -1.7829019e-01
 -1.3792606e-04
 -2.8317111e-02
 -2.0573339e-03
  4.4931052e-03
  1.3969395e-03
 -8.0093769e-03
  6.4036422e-03
 -1.4188408e+00
 -7.0469749e-01
 -1.0462385e-01
 -1.0222027e-01
 -3.3334906e-03
 -7.2728290e-04
 -1.0001431e+00
 -6.7394776e-03
 -6.3116555e-03
 -3.7109861e-01
 -6.7751743e-02
 -2.7764392e-01
 -1.8455576e-02
 -3.5419612e-04
 -2.6493252e-03
 -3.3850946e-02
  1.8344530e-03
 -3.1625659e-03
  3.5190530e-04
  5.6981491e-03
 -5.6679132e-03
  1.3138567e-03
 -3.7155065e-04
  1.0920558e-03
  1.4859546e-03
  1.4470524e+00
  5.4426306e-01
  2.5926242e+00
 -3.6858112e-01
 -3.8484675e-01
 -5.8631372e-01
 -1.3566388e+00
 -7.2033250e-01
  1.1404883e+00
  2.3015156e+00
  4.3769386e-01
  1.0216722e+00
  9.7794795e-01
 -8.6021227e-01
  1.0007080e-01
  4.0272184e-02
 -7.4511388e-04
  4.9541956e-01
 -5.6791312e-01
  6.3030702e-01
  8.8986188e-01
 -1.5320567e-03
 -1.2203433e-01
  5.5087406e-02
 -4.4906831e-01
  5.8592062e-02
 -3.9236799e-01
 -7.9930925e-01
  5.0681867e-02
  6.3936168e-01
 -5.2261883e-01
  1.7331777e+00
  7.8419042e-01
  1.0254105e-01
  3.8608012e-03
 -2.2118007e-01
 -5.7943702e-01
 -1.7912537e-01
  4.0729672e-01
  9.1713555e-03
 -1.0463989e+00
  4.0190834e-01
  6.7856866e-01
  3.5228632e-02
 -4.5906694e-04
 -3.4975943e-01
  1.2769529e-01
 -1.5987685e-02
 -3.1634991e-03
  3.2987443e-01
 -6.1736103e-02
  6.6953977e-03
 -3.4944038e-03
 -3.6376319e-03
 -8.4776932e-04
  1.8117883e-03
  1.4740246e-04
 -1.5449652e-01
  5.5704039e-01
  1.4063852e-01
 -5.0809812e-02
  1.9492441e-03
  7.2617126e-03
  2.8719953e-03
  3.6471784e-03
 -8.2567352e-04
 -7.9244500e-01
  6.3795433e-03
 -3.2258357e-03
  8.6341621e-03
 -1.4048239e-03
  3.9195162e-04
  1.7830565e-04
 -8.9749874e-04
  8.6605149e-05
  1.0096257e-05
  1.0580010e-02
 -6.3673169e-03
  1.3109845e-03
  4.1636988e-03
  3.5822997e-03
  1.1144198e-03
  6.1643324e-03
  3.1643317e-03
  2.7495034e-03
 -8.6480123e-04
 -4.9039610e-03
 -1.2347089e-04
  6.9150920e-03
  2.0644774e-03
  4.4773862e-04
  5.8817421e-04
  1.9924936e-03
  2.2021837e-03
 -1.1732405e-03
 -2.2227308e-03
 -1.8073393e-03
  1.2176101e-01
 -1.4439858e-03
  5.2586111e-04
  9.3481928e-04
 -4.1707130e-03
 -6.7699270e-04
  2.0696546e-04
 -9.0154259e-05
 -7.2801061e-02
 -4.7604210e-04
 -7.7972381e-04
  1.4026088e-03
 -2.4547960e-04
  9.3698436e-03
 -2.8395711e-04
  7.3043156e-01
 -1.4314827e+00
  4.9218810e-01
 -6.1275274e-01
  1.4155848e-01
 -1.0395045e-03
  4.6476507e+00
 -7.5141066e-01
 -2.7608604e+00
  1.0071484e+00
 -7.5648344e-01
  3.3233815e-03
  8.2135014e-02
 -1.3028961e+00
 -1.9884363e+00
  2.0031239e-01
  9.8730775e-04
  4.2774883e-04
 -1.5147977e-02
  1.4292309e+00
  4.6920419e-02
 -3.0253583e-01
  9.0666670e-01
 -2.7596435e-01
  1.9132009e-02
  1.9990010e-03
 -2.7352253e-02
 -1.7661664e-03
 -8.8874079e-02
  1.2006883e-03
 -3.0605865e-04
 -1.2145642e+00
  1.7671956e+00
 -6.5211260e-01
 -1.1308470e-03
  6.9417601e-04
 -5.2442024e-03
  1.0113934e+00
  4.6077356e-01
  2.7828054e-03
 -1.5196773e+00
  8.0689695e-03
 -1.1568744e+00
  7.2385311e-01
  3.3784192e-04
 -5.0840802e-03
 -7.1777657e-02
 -9.1819989e-04
 -9.2595734e-04
  6.2938035e-04
 -7.4714379e-05
  4.8745275e-04
  3.8563160e-04
  3.4859846e-03
  2.2067549e-03
  4.7692829e-03
 -4.1754629e-02
 -7.6994352e-02
 -1.4061442e-01
 -1.4923497e-01
 -2.8644544e-01
  6.2533343e-01
  1.9894714e-02
 -2.4944749e-01
 -2.6683226e-01
  1.1694390e+00
  6.6051680e-01
 -1.9576511e-01
  5.7413173e-01
 -1.1138131e-02
  3.0162664e-02
  2.8094819e-01
  3.0351331e-02
 -3.2428408e-01
  7.2877808e-04
 -1.9967180e+00
 -1.5254424e+00
  5.9038573e-03
  2.2348584e-01
 -2.9169831e+00
 -6.6135430e-01
  2.6958372e-02
 -5.5149662e-01
  3.6988321e-01
  2.7066940e-01
 -2.6279601e-04
 -2.0974305e-02
  4.1569272e-01
 -5.2830338e-01
 -5.9956253e-02
 -1.9105352e-01
 -6.2228501e-01
  9.5995843e-01
 -1.5339212e-01
 -1.4630398e-01
 -1.8127194e-02
 -1.4164816e-03
 -3.6112618e-02
 -2.7864636e-04
 -1.4061460e-01
 -5.2127048e-02
  5.0159968e-02
  1.3767514e-01
  8.4675048e-03
 -2.7543560e-04
  7.9596096e-01
  1.6249655e-01
  1.0741505e-02
  1.0422993e-03
  4.4834660e-03
  1.8196977e-03
 -4.5109401e-03
  6.3278824e-03
 -6.1145029e-03
  2.4706618e-01
  5.1652455e-01
  1.3253440e+00
 -6.1065239e-01
  9.6896642e-01
  7.0217669e-01
  5.6961398e-03
 -7.6914227e-01
 -8.1193972e-01
  1.5101103e-03
 -1.2582673e-04
 -3.4268334e-04
 -7.8826320e-01
 -2.2602479e-03
  6.4468926e-01
  4.7053494e-03
 -2.8140149e-03
  1.1311043e-02
  1.8707498e-03
 -1.3505024e-03
  7.8264880e-01
  1.3544810e-01
  2.3724264e-03
 -2.0378935e-03
  8.6906245e-03
 -4.6134223e-03
 -5.2520592e-04
  2.5442203e-03
  5.8595522e-04
  2.9869037e-02
  9.2280693e-02
  1.1977775e-03
  3.6610139e-03
 -3.9576698e-04
 -1.1038212e-03
  1.9352171e-01
  2.9100939e-03
 -1.7921531e-05
  1.4302082e-03
  4.6870895e-03
 -2.2529683e-04
  5.0511751e-03
 -2.4475509e-04
 -1.3289506e-04
  4.1967686e-03
  1.1016204e-03
  3.3029395e-03
  2.5496844e-03
 -5.8039380e-03
 -7.7020732e-04
 -5.7135604e-04
 -3.6259854e-04
  4.1605993e-03
 -4.5197816e-03
 -2.0609504e-01
 -1.2063690e-03
  6.9796288e-04
  8.6753874e-04
 -1.5555291e-02
 -1.1873520e-03
  4.6562334e-04
 -1.5365002e-01
 -3.5513181e-04
  4.9722067e-04
 -3.0152788e-03
  3.6467947e-03
  1.9221104e-03
  7.8204507e-04
  3.4211492e-04
  2.1625490e+00
  1.1508325e-03
  7.8941986e-04
  2.4440224e-04
 -2.3886932e-03
 -6.6282402e-04
  2.3626918e-03
  1.5557556e-03
  1.2516322e-03
 -2.8765207e-04
  2.4187232e-04
 -2.7528876e-03
 -9.0358226e-04
 -6.1008083e-03
 -6.2496394e-05
 -9.8097534e-04
 -1.2388572e-02
  7.6174188e-01
 -4.1018734e-03
  3.0115692e-04
  1.5448787e-03
 -3.1946220e-03
  4.0928866e-03
 -5.3313281e-04
 -4.3425667e-03
 -1.7576873e-03
  2.0575842e-03
 -5.3553930e-03
 -1.5604361e-03
 -8.7416277e-04
 -7.0618256e-04
 -1.8658617e-03
  3.9174473e-03
 -4.8912462e-04
  1.0952431e-03
 -1.7626622e-03
 -4.0703753e-01
 -1.1713168e-03
 -1.1735082e-03
  3.0966953e-04
 -2.1738737e-04
 -1.5074436e-01
 -1.7117995e+00
 -5.0283480e-01
  3.7616163e-01
 -2.7354112e-01
  3.1394658e+00
  2.3906639e-02
 -8.5126758e-01
  1.5935300e-02
  3.3685112e-01
  7.4536061e-01
 -6.0354632e-01
  1.6091068e-01
 -2.8957713e-02
 -5.4592204e-01
  2.6155326e-03
  3.0225061e-03
 -6.9063991e-01
 -1.1785269e-02
 -1.2223766e+00
 -3.4617242e-01
  5.2804589e-01
 -7.5092155e-01
 -2.8302193e-01
 -1.0042778e+00
 -4.2556790e-03
 -2.4925484e-05
  1.1796159e-04
 -9.1949737e-01
 -1.7982110e-03
  3.2484296e-01
 -2.1748373e-01
 -4.9115363e-01
 -3.1195360e-04
  4.0143421e-03
 -2.7360800e-01
  5.9998212e-03
  5.2112615e-04
 -8.1505150e-02
  1.6754282e-04
  1.8533439e-03
 -2.1839375e-03
 -8.0823195e-01
  1.6530855e-01
 -1.7981628e+00
 -6.2112976e-04
 -1.9469984e-01
 -3.7155949e-04
  2.3219036e-01
 -3.7685860e-04
  1.6500967e-03
 -2.5545694e-03
 -2.0532182e-03
  3.1123292e-03
  9.3899207e-04
 -2.3184972e-01
  2.3165500e+00
  2.2085202e+00
  1.4233071e+00
  3.2535441e-02
  1.4615967e+00
  1.0027108e-01
 -8.3650172e-01
 -1.9723107e+00
 -2.2085512e-03
  3.2947174e-01
 -2.5573140e-01
  3.5719880e-01
  6.6486514e-01
  4.0002197e-01
 -1.4409993e+00
 -4.4248011e-03
  2.0624378e-01
 -4.9661234e-01
 -2.2382288e+00
 -6.4765948e-01
  7.1704847e-01
 -5.8614683e-01
  3.6091068e-01
  1.8880799e+00
 -2.9916218e-01
 -1.4032853e+00
 -1.1336480e+00
 -9.5659435e-01
 -5.3815573e-01
  3.8012010e-01
  2.8624671e+00
 -2.0637472e+00
  3.6455321e-01
 -4.6129060e-01
  5.8107883e-01
  7.8048505e-04
 -1.5022750e+00
  2.4757271e+00
  1.0537969e+00
  7.5454319e-01
 -9.7232354e-01
 -9.2325026e-01
 -1.4614123e+00
 -8.0542453e-03
  1.4116067e-01
 -1.9844288e+00
  1.2024796e+00
 -1.0424202e-01
 -2.2507507e-02
 -1.3167572e+00
  2.7200621e-01
 -6.5457617e-04
  4.4401404e-03
 -4.8197711e-05
  3.0114004e-04
 -6.0276222e-01
 -3.9901260e-02
  2.1303993e-01
 -3.2330680e-01
 -6.2040030e-03
 -6.5717715e-01
  1.2583826e-01
 -1.8275407e-01
 -7.9704905e-03
 -4.8928745e-03
  1.0330523e-01
  5.0618285e-01
 -1.9533001e-03
  1.8158125e-03
 -1.2479564e-04
 -7.4855164e-03
  1.5071246e-03
  5.5181171e-04
  5.4736366e-03
 -1.0492050e-03
 -9.2367240e-04
  1.5111607e-03
  9.6489332e-04
 -5.5914372e-04
 -8.7404348e-02
 -3.1311198e-03
  1.2076000e-03
 -3.8058724e-04
  1.3429241e-04
 -1.4421301e-03
  8.4226922e-04
  4.4374852e-03
 -8.5781375e-04
 -2.8497407e-02
  7.7878209e-03
  9.7975170e-04
 -4.8443056e-03
  2.6111136e-04
 -3.5978894e-05
 -1.9512335e-03
  1.3961972e-03
 -1.2896830e-03
 -7.8883400e-04
 -2.0510685e-03
 -1.9631465e-03
  2.2562700e-03
 -1.1680503e-03
  2.8898108e-03
  2.5672396e-03
  1.5960111e-03
 -2.9558977e-04
  1.3355216e-03
  2.5480107e-04
  7.7520120e-03
  4.9609074e-04
  2.2233217e-03
  2.1491003e-04
  6.6899669e-01
  4.5335239e-01
 -1.0650961e+00
 -1.2626618e-04
 -1.6722659e+00
 -8.1501627e-01
 -3.5698175e-01
 -6.8840140e-01
 -3.2454708e-01
  6.3937940e-02
  4.7544320e-03
  3.8155590e-04
  5.8009503e-03
 -2.7311420e+00
  9.2356957e-02
  6.5345377e-01
 -6.1934427e-03
  1.7508429e-03
  3.7440652e-04
  2.7031082e-01
 -2.3500014e-03
  2.1362219e-03
 -1.5959001e+00
 -8.8375978e-02
  7.1513453e-03
 -5.9098355e-03
  1.0774734e+00
 -2.2431466e-04
  3.3854351e-03
 -3.3563170e-05
 -4.1093622e-04
 -4.4776127e-02
  8.7183143e-04
  1.7573277e-03
 -1.6150952e-03
  6.0015656e-03
  2.1926083e-03
 -5.3588212e-03
 -1.1573502e-02
 -3.9820396e-03
 -2.4947913e-01
  3.6718385e-04
 -5.9950286e-01
 -1.4921393e-01
 -2.1561137e-03
 -5.8296532e-04
 -2.2288378e-01
  3.7995668e-04
 -8.5244793e-04
 -3.4425801e-04
 -3.4916177e-04
 -2.2590037e-03
  2.1329226e-03
 -6.4077775e-04
 -1.0494888e-03
  9.1749663e-04
  1.0430861e+00
  1.5199254e+00
  2.3413794e-01
 -6.1195499e-01
  3.0832654e-01
 -5.6611031e-01
 -2.9032652e+00
  2.1749431e-01
  5.9784216e-01
 -1.3804154e+00
 -3.3154067e-01
  1.1518244e+00
  8.6890355e-02
  3.5735875e-01
 -2.2978388e-01
  7.4485773e-01
  1.6603237e-01
  9.2059737e-01
 -5.9688832e-03
  1.3823169e+00
 -5.1855030e-03
 -1.4677539e+00
 -2.2265629e-01
 -1.0619782e-01
  3.1915891e-01
  4.4850120e-03
 -8.1621725e-03
  2.1353277e-04
 -2.7496198e-02
 -9.6826923e-01
  4.2171893e-01
  1.3117536e+00
  2.3935463e-01
  1.9969074e-02
  2.4323946e-01
 -6.8721658e-01
  1.1451367e+00
  1.7262703e-03
 -6.4136088e-02
  4.4125879e-01
  9.7429883e-01
 -4.0177771e-01
  1.5053979e-01
 -1.7694307e-02
 -4.9620894e-01
 -2.1552248e-03
 -4.6956715e-01
  3.6390062e-02
 -7.0930779e-04
  2.1179754e-01
  2.2345070e-02
 -1.0655028e-03
  5.8178985e-03
 -6.6329900e-04
  8.0541044e-04
  5.8427852e-01
  8.3678389e-01
  1.3657511e+00
 -4.8767671e-02
 -9.3708116e-01
  1.2707523e+00
  3.3922586e-01
 -1.3628194e+00
 -1.2718424e-02
  6.7581272e-01
  1.9771954e-01
  9.2461383e-01
  2.9360810e-02
  8.3653659e-01
 -2.0364006e-01
 -2.7948173e-03
 -9.3875641e-01
 -4.8105381e-04
  6.2322271e-01
  1.2878245e+00
 -2.5894918e+00
  2.5790205e+00
  1.5296302e+00
  5.9049922e-01
 -5.1776823e-02
  1.0558153e+00
  2.4740937e+00
  3.0534661e+00
  2.3113155e+00
  8.7065823e-02
  9.6967769e-01
 -1.7562987e+00
 -2.5902078e+00
 -2.9208744e-01
  4.3670690e-01
  1.1941470e+00
  1.4603702e+00
  9.3458825e-01
  7.9934290e-03
 -7.8294230e-01
  1.5749002e+00
  3.9743565e-02
 -6.2349808e-01
 -1.8295562e+00
  9.7621483e-01
 -6.9104284e-01
 -2.8505869e+00
 -1.4850947e-01
 -1.5293314e-03
 -2.1033380e+00
 -2.0948109e-01
  1.9672306e-01
  2.1444600e+00
 -2.5250599e-01
  1.3582846e+00
 -1.4816900e+00
 -1.1106836e+00
 -9.0157467e-01
 -1.9265374e+00
  6.1292470e-01
  1.6087230e-01
  8.9401764e-01
 -2.9312211e-01
  7.2894096e-01
 -6.2049514e-01
  9.3099289e-02
  8.0550122e-01
  4.0256947e-02
 -2.7515438e-01
 -4.6245274e-01
 -5.7222643e+00
  3.2920182e+00
  8.3202159e-01
 -1.1624516e+00
  3.7249836e-01
 -1.6171426e+00
  2.7052982e+00
  6.9682550e-01
 -2.1550577e+00
 -1.0081170e+00
  1.2281255e+00
 -2.3745329e+00
 -4.4123831e+00
 -7.6637024e-01
  7.8173369e-01
 -5.0894833e-01
 -1.0426756e-01
 -4.6830601e-01
  1.1965532e+00
 -5.8839834e-01
  3.7949705e+00
  9.9673517e-02
  6.1533529e-01
 -2.6523910e+00
  3.8741776e-01
  4.6785742e-02
 -2.9006591e+00
  1.3817388e+00
 -2.9052657e-01
  6.5155941e-01
 -1.5525435e+00
 -1.8471357e-03
  1.1705757e-02
 -2.7494153e-01
 -3.1878456e-02
 -2.5006875e-03
  2.8220778e-02
  7.1019083e-02
  1.1067290e-03
 -4.1469513e-03
 -5.8730263e-03
  2.5515358e+00
 -8.6749710e-02
  8.3665952e-02
  3.3101065e-03
 -3.6484876e-03
 -1.4797696e-01
 -7.2777440e-04
 -8.4665962e-02
  1.2330447e-01
  3.9473415e-04
 -1.7569277e-03
  1.2869261e-03
  3.8713918e-04
 -4.4870850e-02
 -7.4217463e-04
 -1.0467324e-03
 -3.6110894e-05
  8.8835554e-03
 -1.6268509e-04
 -3.1756344e-03
  3.4424387e-02
 -1.5200530e-05
  3.7311728e-03
  9.8642136e-04
  3.9536715e-03
 -2.1726820e-03
 -4.9802568e-03
  3.7570115e-02
 -5.3922104e-04
  1.0818588e-03
 -2.3734029e-03
  4.9340026e-03
 -7.4958766e-04
 -1.1334913e-02
 -1.9786777e-02
  1.6235504e-01
  5.4629643e-02
  6.6138292e-03
  7.0390018e-04
 -3.4438956e-03
 -2.4320814e-04
  2.0589943e-03
  2.6204123e-05
 -1.3183050e-03
 -2.4142074e-03
 -2.1383215e-02
  5.7000708e-04
  4.4732451e-01
 -6.6823237e-02
 -3.5499721e-03
  2.1611927e-04
  5.5125469e-01
  6.0747162e-02
  4.2297741e-04
 -6.9571799e-03
  1.8949218e-01
  2.2698791e-01
  8.7463493e-03
 -1.9813010e-03
 -1.4920993e-03
  7.8139524e-04
 -8.5894768e-05
 -3.6672214e-03
  2.1537964e-03
  1.6702771e-03
  5.8056354e-03
  9.5721491e-04
  2.9689266e-04
  3.7772686e-05
 -1.7369096e-03
 -4.3891856e-04
  6.6417895e-05
  6.5709063e-04
  3.3505209e-04
  2.5473125e-03
  7.1966252e-04
  1.8909407e-03
 -1.2745719e-03
 -2.0549556e-03
  5.5469270e-04
  1.7870879e-03
 -7.1833452e-04
 -8.6459043e-03
  4.2724926e-03
 -4.6004073e-04
 -1.7239632e-04
  1.7536968e-02
  6.5591303e-03
  1.4725201e-03
  1.3362219e-03
  1.1721215e-03
  1.3470558e-02
  1.0931692e-03
 -1.1284705e-03
  1.6522534e-03
  2.8758260e-04
  7.9695380e-04
 -6.5487344e-04
  5.1200185e-03
  1.0327038e-03
  1.8855947e-04
 -1.3483340e-03
  5.0102994e-02
  4.4266708e-02
 -1.1653279e+00
  2.5243883e+00
  3.4340916e-04
  2.7406281e-01
  1.6090794e-02
  4.2868820e-03
 -1.0533623e-01
  4.8776796e-01
  4.8598799e-01
  2.0675277e-03
  6.5475642e-03
 -7.7793532e-04
 -1.1588382e-03
  3.8549400e-04
 -7.0346793e-04
 -1.3465096e-03
 -3.1051677e-01
 -7.7821157e-04
 -1.2105252e-03
 -1.5859333e-03
  1.8708764e-03
 -6.6896569e-04
  1.4621589e-03
  1.5430684e-03
  4.1222022e-04
 -2.0195369e-03
  1.4412752e-03
 -5.8105949e-04
 -5.0827791e-04
  3.8311831e-04
  5.4610115e-03
 -2.1118391e-03
 -1.2610203e-03
  6.7614424e-03
 -8.9460695e-03
  6.5820600e-04
  9.7072613e-04
 -1.5915481e-03
 -1.0415596e-04
  2.9938570e-03
 -5.5640488e-04
 -4.9921032e-04
 -2.4230797e-04
  1.2054267e-01
  8.3564571e-04
  1.3085379e-03
  4.2511025e-03
  1.3299980e-04
 -1.6643115e-03
  7.4214698e-04
 -6.3912454e-04
 -5.1162840e-04
 -2.1029928e-05
 -8.7067985e-04
 -3.0233766e-04
  2.0289683e+00
 -3.1119092e+00
 -1.8328428e-02
  3.4326985e-01
 -9.0444851e-01
 -2.9995793e-01
  1.3164288e-01
 -5.5518275e-01
  1.9236882e+00
  2.0254087e+00
 -1.3101158e+00
  5.6862593e-01
  3.3919799e-01
 -1.5960277e+00
 -3.4400567e-01
 -9.0841335e-01
 -1.3097521e+00
 -8.8505954e-01
 -1.7538360e-01
 -5.2915424e-01
  1.9727249e-01
  1.2094331e+00
 -1.5796855e-02
  6.0375091e-03
 -2.6113796e-01
  8.0430834e-04
 -3.4443462e-01
 -8.2437886e-04
  3.4081599e-01
 -2.2432726e-04
  3.6870846e-01
  7.7168494e-02
  6.3880440e-04
 -2.3630208e-03
  3.3177563e-03
  1.7903386e+00
 -1.9710413e-04
 -8.2156235e-01
  1.9715671e-01
  8.0898821e-01
 -1.1377731e-01
 -1.9491814e-01
 -5.3319865e-01
  4.8909424e-04
 -2.0166249e-03
 -8.7698482e-02
 -3.7906633e-03
  1.4420695e-03
 -2.2784837e-03
  2.2822830e-03
 -2.0271731e-03
  1.3657508e-03
 -4.3070256e-03
  1.1358639e-02
  1.7658673e-03
 -1.9350153e-01
 -8.0525434e-01
  1.4468610e+00
  1.7651526e+00
  2.4076031e-01
 -3.6465186e-01
 -1.9030131e-01
 -2.0324757e+00
 -9.8267719e-02
 -6.7950821e-01
  1.0749304e+00
  3.8831785e-01
 -1.1376719e+00
  1.6228968e-01
  4.0966943e-02
 -7.1086752e-01
  1.3612156e-01
  2.3241209e-02
 -4.6933740e-01
 -1.6790576e-01
 -8.5889530e-01
  3.0442157e-01
  1.7407577e-01
 -2.0288117e-01
  1.9694135e-02
 -1.7443599e-01
  1.5445146e-01
  4.5510747e-02
  8.9006340e-03
 -4.4800404e-01
 -1.6302764e-01
 -1.6960295e-01
  3.2402098e-02
  1.7826805e-01
 -3.6987856e-01
  2.9388091e-01
 -6.1987855e-02
 -5.1841885e-01
 -3.3918217e-01
 -4.4922046e-02
 -2.6872924e-02
 -2.6607174e-01
 -1.1740870e-01
 -1.5959257e-01
  1.7644031e-02
 -3.0697908e-02
  6.5827048e-01
 -6.4864165e-01
 -4.4562607e-03
  1.0424019e-01
 -4.4595847e-01
  2.1968796e-03
 -3.5172775e-02
  6.3748771e-01
  1.5093021e-01
  1.1909680e-03
 -4.7801686e-03
 -6.4818375e-03
 -1.2213936e+00
 -2.4475734e-01
  1.0874777e-03
  6.0001445e-01
  8.2747430e-01
  1.4812145e-03
  2.5847100e-04
  1.1410014e-01
  2.5195035e-01
  8.7380802e-05
  2.2244981e-02
  2.7434650e-01
  6.3967691e-03
  1.5646325e-04
  5.8274287e-01
  3.1306141e-04
  1.9964030e-02
  3.0085279e-04
 -2.4236376e-04
 -7.0849026e-04
 -2.3211648e-04
 -1.0567054e-01
 -3.1492719e-03
 -3.8403713e-03
 -5.8998726e-04
 -6.1179111e-03
  2.7163106e-03
  5.6265085e-03
  9.2438766e-04
  3.3607397e-03
 -9.6445228e-04
  5.5769854e-04
  5.3984654e-04
  2.9915145e-03
 -5.2896231e-02
  1.1427545e-03
  5.2260221e-03
  3.5914995e-03
 -7.0489645e-03
  4.5710723e-03
 -1.2252951e-03
 -1.0875401e-02
 -2.2973954e-03
 -2.2640808e-02
  5.0966311e-03
 -1.6790334e-03
  2.9219033e-03
 -7.0664654e-03
  5.1243170e-03
  4.1945437e-03
  4.0022994e-04
  2.3339060e-03
  1.1147573e-03
  6.8829657e-04
 -5.6896708e-04
 -2.1059521e-01
  8.7012714e-01
  1.4273028e-02
 -1.1750101e-04
 -7.3460871e-01
 -5.7821009e-02
 -1.7653508e-01
  3.1883913e-04
 -1.4468193e-01
 -4.2339344e-02
 -2.3150116e-03
 -5.4826331e-03
  1.9587092e-03
 -1.5385129e-03
  2.6782951e-03
 -1.5350865e-03
 -3.0831230e-05
 -1.8666199e-04
 -1.6956769e-01
 -7.0215226e-03
  6.3120259e-04
 -2.7378378e-02
 -7.3656141e-05
 -2.8886399e-03
  7.2655437e-04
 -1.8479789e-03
 -2.0457497e-03
 -1.3445549e-04
 -1.2542601e-03
 -5.6690571e-04
 -3.6511031e-01
 -5.0622941e-05
 -4.1750367e-03
 -2.6604501e-04
  2.0075580e-03
  1.8067010e-02
  2.5289496e-03
  2.2922081e-03
 -3.5964267e-03
  2.4902686e-03
  1.5500761e+00
 -3.1958770e-03
 -6.4911813e-02
  1.9824528e-03
 -2.0441687e-01
 -5.9328967e-04
 -3.5927773e-02
 -1.7900891e-03
 -7.4358226e-04
 -1.2928467e-03
  6.9179886e-04
  3.0880619e-03
  3.4596250e-04
 -1.4167310e-04
  9.4572280e-04
 -5.2371243e-04
  1.7358080e-03
 -3.5954930e-02
 -7.9881446e-03
 -5.9710001e-04
  3.5354632e-01
  4.4197538e-03
  2.6275686e-04
 -1.5125000e-04
  2.2888535e-01
  1.4082092e-02
 -2.5285201e-03
  1.0591500e-04
  6.1651709e-04
  1.1687087e-02
  8.4164215e-04
 -1.9543602e-03
  6.9734403e-03
 -2.5150545e-03
  1.7537258e-04
 -9.6605992e-04
  3.0342870e-05
  9.2112616e-04
 -3.1377305e-03
 -5.0481461e-04
 -1.7959919e-03
  2.1067709e-03
 -3.1831570e-03
 -1.7897759e-03
 -6.4233714e-04
  4.0357325e-02
  4.3536996e-04
 -2.5112071e-04
  4.1252282e-04
  1.3234360e-03
 -1.3804306e-05
  3.3403945e-03
 -1.9762159e-05
  3.4613288e-03
 -9.3462429e-04
 -2.6527600e-04
 -1.3157566e-03
 -1.7656173e-03
  8.2165771e-04
 -1.3276302e-04
  7.0618065e-03
 -9.7328223e-02
 -7.8443889e-05
  7.2145823e-04
 -6.1117206e-04
 -1.0775044e+00
